{"learner":{"attributes":{"scikit_learn":"{\"_estimator_type\": \"classifier\"}"},"feature_names":[],"feature_types":[],"gradient_booster":{"model":{"gbtree_model_param":{"num_parallel_tree":"1","num_trees":"100"},"iteration_indptr":[0,1,2,3,4,5,6,7,8,9,10,11,12,13,14,15,16,17,18,19,20,21,22,23,24,25,26,27,28,29,30,31,32,33,34,35,36,37,38,39,40,41,42,43,44,45,46,47,48,49,50,51,52,53,54,55,56,57,58,59,60,61,62,63,64,65,66,67,68,69,70,71,72,73,74,75,76,77,78,79,80,81,82,83,84,85,86,87,88,89,90,91,92,93,94,95,96,97,98,99,100],"tree_info":[0,0,0,0,0,0,0,0,0,0,0,0,0,0,0,0,0,0,0,0,0,0,0,0,0,0,0,0,0,0,0,0,0,0,0,0,0,0,0,0,0,0,0,0,0,0,0,0,0,0,0,0,0,0,0,0,0,0,0,0,0,0,0,0,0,0,0,0,0,0,0,0,0,0,0,0,0,0,0,0,0,0,0,0,0,0,0,0,0,0,0,0,0,0,0,0,0,0,0,0],"trees":[{"base_weights":[-7.575758E-2,1.9004525E-1,-1.3191489E0,1E0,-1.656051E-1,5E-2,-1.5348837E0,-8E-1,1.6153846E0,-8.7323946E-1,4E-1,-1.6842105E0,-2.2222223E-2,-1.4666668E-1,6.666667E-2,1.8333334E-1,-5E-2,-1.3454546E0,6E-1,-3.4146342E-1,9.433962E-1,-5E-2,-1.764706E-1,-2.2222222E-1,-1.7073171E0,1.1428572E-1,-4.0000003E-2,-1E0,4.7619048E-1,-6.666667E-2,1.1666666E0,1.1111112E-1,-1.07692316E-1,-1.7837839E-1,-5E-2,-1.5789475E-1,6.666667E-2,-8.0000006E-2,1.20000005E-1,1.4E-1,-0E0],"categories":[],"categories_nodes":[],"categories_segments":[],"categories_sizes":[],"default_left":[0,0,0,0,0,0,0,0,0,0,0,0,0,0,0,0,0,0,0,0,0,0,0,0,0,0,0,0,0,0,0,0,0,0,0,0,0,0,0,0,0],"id":0,"left_children":[1,3,5,7,9,-1,11,13,15,17,19,21,-1,-1,-1,-1,-1,23,25,27,29,-1,-1,31,33,-1,-1,35,37,-1,39,-1,-1,-1,-1,-1,-1,-1,-1,-1,-1],"loss_changes":[2.2063496E1,1.6080957E1,5.3787727E0,2.0123077E1,1.6058779E1,0E0,1.7328987E0,5.866667E0,6.9102554E0,1.3155697E1,9.387575E0,2.3220062E-2,0E0,0E0,0E0,0E0,0E0,5.20936E0,3.171429E0,5.9953547E0,5.540881E0,0E0,0E0,6.324786E0,5.438423E-2,0E0,0E0,6.842105E0,5.8095236E0,0E0,3.2666664E0,0E0,0E0,0E0,0E0,0E0,0E0,0E0,0E0,0E0,0E0],"parents":[2147483647,0,0,1,1,2,2,3,3,4,4,6,6,7,7,8,8,9,9,10,10,11,11,17,17,18,18,19,19,20,20,23,23,24,24,27,27,28,28,30,30],"right_children":[2,4,6,8,10,-1,12,14,16,18,20,22,-1,-1,-1,-1,-1,24,26,28,30,-1,-1,32,34,-1,-1,36,38,-1,40,-1,-1,-1,-1,-1,-1,-1,-1,-1,-1],"split_conditions":[-1.1419222E1,-4.2179283E1,-7.3412415E1,-3.6214612E2,3.2235205E-1,5E-2,3.3797133E-1,1.9400992E3,3.8852894E0,-3.7401283E1,3.3710915E-1,2.566553E-1,-2.2222223E-2,-1.4666668E-1,6.666667E-2,1.8333334E-1,-5E-2,-2.0273943E1,-6.4990654E1,-1.8159468E0,2.8812015E-1,-5E-2,-1.764706E-1,1.8951382E1,-8.142475E0,1.1428572E-1,-4.0000003E-2,-1.3413815E1,2.6689833E-1,-6.666667E-2,2.7240221E1,1.1111112E-1,-1.07692316E-1,-1.7837839E-1,-5E-2,-1.5789475E-1,6.666667E-2,-8.0000006E-2,1.20000005E-1,1.4E-1,-0E0],"split_indices":[2,35,29,0,25,0,25,13,9,35,21,23,0,0,0,0,0,2,30,11,17,0,0,3,9,0,0,2,21,0,3,0,0,0,0,0,0,0,0,0,0],"split_type":[0,0,0,0,0,0,0,0,0,0,0,0,0,0,0,0,0,0,0,0,0,0,0,0,0,0,0,0,0,0,0,0,0,0,0,0,0,0,0,0,0],"sum_hessian":[6.5E1,5.425E1,1.075E1,1.6E1,3.825E1,1E0,9.75E0,4E0,1.2E1,1.675E1,2.15E1,8.5E0,1.25E0,2.75E0,1.25E0,1.1E1,1E0,1.275E1,4E0,9.25E0,1.225E1,1E0,7.5E0,3.5E0,9.25E0,2.5E0,1.5E0,5E0,4.25E0,1.25E0,1.1E1,1.25E0,2.25E0,8.25E0,1E0,3.75E0,1.25E0,1.5E0,2.75E0,9E0,2E0],"tree_param":{"num_deleted":"0","num_feature":"39","num_nodes":"41","size_leaf_vector":"1"}},{"base_weights":[-7.375001E-2,1.2359817E-1,-1.4229566E0,3.6224505E-1,-9.0157515E-1,-1.9693604E-2,-1.6133647E-1,-1.0026764E0,5.226882E-1,1.6809043E-1,-1.2796513E0,-1.4459448E-1,2.3128962E-2,-8.66766E-1,6.697971E-1,-7.616468E-2,1.1256534E-1,-2.5669688E-2,-1.5657939E-1,-1.3281377E-1,1.8730292E-2,7.7422184E-1,-7.153364E-2,-2.8627673E-2,9.5047824E-2],"categories":[],"categories_nodes":[],"categories_segments":[],"categories_sizes":[],"default_left":[0,0,0,0,0,0,0,0,0,0,0,0,0,0,0,0,0,0,0,0,0,0,0,0,0],"id":1,"left_children":[1,3,5,7,9,-1,-1,11,13,15,17,-1,-1,19,21,-1,-1,-1,-1,-1,-1,23,-1,-1,-1],"loss_changes":[1.7130304E1,1.4142266E1,1.5977306E0,1.0711672E1,4.6433926E0,0E0,0E0,3.198316E0,9.223552E0,4.190069E0,2.0001764E0,0E0,0E0,2.4294977E0,6.1659813E0,0E0,0E0,0E0,0E0,0E0,0E0,7.1059666E0,0E0,0E0,0E0],"parents":[2147483647,0,0,1,1,2,2,3,3,4,4,7,7,8,8,9,9,10,10,13,13,14,14,21,21],"right_children":[2,4,6,8,10,-1,-1,12,14,16,18,-1,-1,20,22,-1,-1,-1,-1,-1,-1,24,-1,-1,-1],"split_conditions":[1.5836361E-1,-1.1419222E1,-1.4079024E1,3.0689743E-1,9.868421E1,-1.9693604E-2,-1.6133647E-1,-1.4161719E1,2.8812015E-1,-8.017086E0,-4.5779655E1,-1.4459448E-1,2.3128962E-2,3.0735388E-1,-3.0029736E2,-7.616468E-2,1.1256534E-1,-2.5669688E-2,-1.5657939E-1,-1.3281377E-1,1.8730292E-2,-3.61617E2,-7.153364E-2,-2.8627673E-2,9.5047824E-2],"split_indices":[4,2,12,20,16,0,0,6,17,5,37,0,0,28,0,0,0,0,0,0,0,0,0,0,0],"split_type":[0,0,0,0,0,0,0,0,0,0,0,0,0,0,0,0,0,0,0,0,0,0,0,0,0],"sum_hessian":[6.2675385E1,5.5470165E1,7.2052183E0,4.552029E1,9.949876E0,1.2420499E0,5.963168E0,4.23583E0,4.128446E1,2.743443E0,7.2064333E0,2.9899762E0,1.2458534E0,3.4841762E0,3.780028E1,1.4957533E0,1.2476896E0,1.9898499E0,5.2165833E0,2.2425776E0,1.2415987E0,3.5560444E1,2.2398386E0,4.9789467E0,3.05815E1],"tree_param":{"num_deleted":"0","num_feature":"39","num_nodes":"25","size_leaf_vector":"1"}},{"base_weights":[-1.01379484E-1,8.3220047E-1,-3.984119E-1,-8.323822E-1,1.3539134E0,5.0644176E-3,-1.0945294E0,-1.3460465E-1,2.2630004E-2,1.34140495E-2,1.4824023E0,-1.4456433E-1,2.8704858E-1,-1.2672462E0,6.3526146E-2,1.470027E-2,1.6425961E-1,1.2372698E0,-1.0757274E-1,-1.4421098E0,-1.2912238E-2,1.5350214E-1,-2.0586357E-2,-1.1969854E0,2.8683895E-1,1.9893472E-3,-1.618865E-1,-1.447383E-1,-1.902559E-2,-2.9711714E-2,1.0361971E-1],"categories":[],"categories_nodes":[],"categories_segments":[],"categories_sizes":[],"default_left":[0,0,0,0,0,0,0,0,0,0,0,0,0,0,0,0,0,0,0,0,0,0,0,0,0,0,0,0,0,0,0],"id":2,"left_children":[1,3,5,7,9,11,13,-1,-1,-1,15,-1,17,19,-1,-1,-1,21,23,25,-1,-1,-1,27,29,-1,-1,-1,-1,-1,-1],"loss_changes":[1.7311903E1,1.4243569E1,1.3242819E1,2.601356E0,1.6631088E0,1.3027588E1,5.973093E0,0E0,0E0,0E0,2.0365124E0,0E0,1.0125709E1,3.0103264E0,0E0,0E0,0E0,3.7104073E0,8.829035E0,3.6046066E0,0E0,0E0,0E0,1.0966487E0,7.0057707E0,0E0,0E0,0E0,0E0,0E0,0E0],"parents":[2147483647,0,0,1,1,2,2,3,3,4,4,5,5,6,6,10,10,12,12,13,13,17,17,18,18,19,19,23,23,24,24],"right_children":[2,4,6,8,10,12,14,-1,-1,-1,16,-1,18,20,-1,-1,-1,22,24,26,-1,-1,-1,28,30,-1,-1,-1,-1,-1,-1],"split_conditions":[-2.2846342E1,3.0392852E-1,-4.0027153E1,3.3248678E-1,6.1415394E1,-3.6538074E2,-3.5983917E1,-1.3460465E-1,2.2630004E-2,1.34140495E-2,-2.0855608E1,-1.4456433E-1,-1.6662384E1,2.3951372E1,6.3526146E-2,1.470027E-2,1.6425961E-1,2.130453E1,1.4304642E-1,-3.3824805E2,-1.2912238E-2,1.5350214E-1,-2.0586357E-2,-4.3732784E1,1.7573849E1,1.9893472E-3,-1.618865E-1,-1.447383E-1,-1.902559E-2,-2.9711714E-2,1.0361971E-1],"split_indices":[2,21,35,27,1,0,35,0,0,0,12,0,2,3,0,0,0,3,15,0,0,0,0,38,3,0,0,0,0,0,0],"split_type":[0,0,0,0,0,0,0,0,0,0,0,0,0,0,0,0,0,0,0,0,0,0,0,0,0,0,0,0,0,0,0],"sum_hessian":[6.0233784E1,1.4103725E1,4.613006E1,3.223456E0,1.0880269E1,2.9831919E1,1.629814E1,1.9876353E0,1.2358208E0,1.2316765E0,9.648593E0,4.1833577E0,2.5648561E1,1.5061657E1,1.2364829E0,1.2388675E0,8.409725E0,6.89956E0,1.8749002E1,1.28242235E1,2.237434E0,5.666714E0,1.232846E0,4.4427443E0,1.4306257E1,1.4789287E0,1.1345295E1,3.2073035E0,1.2354407E0,8.3796835E0,5.926574E0],"tree_param":{"num_deleted":"0","num_feature":"39","num_nodes":"31","size_leaf_vector":"1"}},{"base_weights":[4.0389296E-2,-4.3597856E-1,4.0924847E-1,-9.244373E-1,2.2102767E-1,-6.2139845E-1,7.7959776E-1,-1.0852994E0,5.9357863E-2,-1.1557485E-1,5.33668E-1,9.249517E-2,-1.151523E0,-1.5576881E-1,1.1235919E0,-1.4680088E-1,-1.3388988E0,9.0276444E-1,-5.628033E-1,-1.5359518E-1,3.1718982E-3,-6.3070154E-1,9.266888E-2,1.2193046E0,-2.0453462E-2,-9.073766E-2,4.218615E-2,-1.5164529E-1,-2.8080255E-2,-2.0438638E-2,1.1065661E0,2.1294378E-2,-1.08029746E-1,5.5572372E-2,-1.1840381E-1,4.7816953E-1,1.5111003E0,1.3498084E-1,2.6475793E-2,-7.967873E-2,1.0585409E-1,1.6281144E-1,5.563004E-2],"categories":[],"categories_nodes":[],"categories_segments":[],"categories_sizes":[],"default_left":[0,0,0,0,0,0,0,0,0,0,0,0,0,0,0,0,0,0,0,0,0,0,0,0,0,0,0,0,0,0,0,0,0,0,0,0,0,0,0,0,0,0,0],"id":3,"left_children":[1,3,5,7,9,11,13,15,-1,-1,17,-1,19,21,23,25,27,29,31,-1,-1,33,-1,35,-1,-1,-1,-1,-1,-1,37,-1,-1,-1,-1,39,41,-1,-1,-1,-1,-1,-1],"loss_changes":[1.1514131E1,9.3947525E0,1.4559616E1,4.702361E0,6.2206163E0,9.512112E0,9.046211E0,3.4639206E0,0E0,0E0,5.0787287E0,0E0,3.7418423E0,4.847062E0,2.8272648E0,2.2836642E0,1.8257866E0,2.2193594E0,1.6191525E0,0E0,0E0,4.8319607E0,0E0,3.3992958E0,0E0,0E0,0E0,0E0,0E0,0E0,1.2021408E0,0E0,0E0,0E0,0E0,5.9099855E0,5.7045746E-1,0E0,0E0,0E0,0E0,0E0,0E0],"parents":[2147483647,0,0,1,1,2,2,3,3,4,4,5,5,6,6,7,7,10,10,12,12,13,13,14,14,15,15,16,16,17,17,18,18,21,21,23,23,30,30,35,35,36,36],"right_children":[2,4,6,8,10,12,14,16,-1,-1,18,-1,20,22,24,26,28,30,32,-1,-1,34,-1,36,-1,-1,-1,-1,-1,-1,38,-1,-1,-1,-1,40,42,-1,-1,-1,-1,-1,-1],"split_conditions":[3.3638826E-1,3.5027063E-1,3.6870077E-1,-3.6867973E1,3.1336614E-1,-7.634184E0,3.2173204E-1,-4.2969696E1,5.9357863E-2,-1.1557485E-1,3.231418E-1,9.249517E-2,-6.874339E1,5.8484417E1,-1.1711157E1,-4.7603565E1,4.179869E-1,2.627159E-1,-1.1389648E1,-1.5359518E-1,3.1718982E-3,-4.4581985E1,9.266888E-2,-1.7677942E1,-2.0453462E-2,-9.073766E-2,4.218615E-2,-1.5164529E-1,-2.8080255E-2,-2.0438638E-2,-1.0580802E1,2.1294378E-2,-1.08029746E-1,5.5572372E-2,-1.1840381E-1,3.4833902E-1,-4.0162846E1,1.3498084E-1,2.6475793E-2,-7.967873E-2,1.0585409E-1,1.6281144E-1,5.563004E-2],"split_indices":[26,28,19,36,20,11,25,35,0,0,26,0,29,1,12,37,22,25,8,0,0,37,0,10,0,0,0,0,0,0,9,0,0,0,0,28,38,0,0,0,0,0,0],"split_type":[0,0,0,0,0,0,0,0,0,0,0,0,0,0,0,0,0,0,0,0,0,0,0,0,0,0,0,0,0,0,0,0,0,0,0,0,0,0,0,0,0,0,0],"sum_hessian":[6.351275E1,2.763771E1,3.587504E1,1.5618738E1,1.2018972E1,9.304269E0,2.657077E1,1.4379967E1,1.2387719E0,1.7251561E0,1.0293817E1,2.1852393E0,7.1190295E0,7.2914667E0,1.9279303E1,3.3949823E0,1.0984984E1,7.833538E0,2.4602783E0,5.1482906E0,1.9707389E0,5.357976E0,1.933491E0,1.8059748E1,1.2195544E0,1.1975915E0,2.1973908E0,9.035578E0,1.9494066E0,1.2173619E0,6.616176E0,1.2199812E0,1.2402971E0,1.7027482E0,3.6552277E0,5.8471723E0,1.2212577E1,4.664807E0,1.9513693E0,1.7124275E0,4.1347446E0,1.02510805E1,1.9614961E0],"tree_param":{"num_deleted":"0","num_feature":"39","num_nodes":"43","size_leaf_vector":"1"}},{"base_weights":[2.0354867E-3,2.3631339E-1,-1.0140926E0,-2.69688E-1,6.978922E-1,-1.4669311E-1,6.739294E-3,-1.1884426E-1,-6.0623173E-2,-3.7838608E-1,9.940508E-1,-1.0354725E-1,8.891114E-2,-4.984419E-1,8.354734E-1,-8.8005126E-1,5.761793E-2,-7.66361E-2,1.1736547E0,-7.3881733E-1,6.79458E-2,-2.4545617E-2,1.24093466E-1,-2.138467E-2,-1.2422061E-1,1.3009579E0,-1.5237643E-2,-1.05999865E-1,5.1314235E-2,8.454736E-3,1.39582E-1],"categories":[],"categories_nodes":[],"categories_segments":[],"categories_sizes":[],"default_left":[0,0,0,0,0,0,0,0,0,0,0,0,0,0,0,0,0,0,0,0,0,0,0,0,0,0,0,0,0,0,0],"id":4,"left_children":[1,3,5,7,9,-1,11,-1,13,15,17,-1,-1,19,21,23,-1,-1,25,27,-1,-1,-1,-1,-1,29,-1,-1,-1,-1,-1],"loss_changes":[1.5764615E1,1.2755505E1,5.745694E0,4.996911E0,9.434266E0,0E0,5.3423543E0,0E0,9.264116E0,3.790488E0,8.032757E0,0E0,0E0,4.968821E0,3.7124553E0,9.1420674E-1,0E0,0E0,3.7208443E0,6.0050917E0,0E0,0E0,0E0,0E0,0E0,2.0910873E0,0E0,0E0,0E0,0E0,0E0],"parents":[2147483647,0,0,1,1,2,2,3,3,4,4,6,6,8,8,9,9,10,10,13,13,14,14,15,15,18,18,19,19,25,25],"right_children":[2,4,6,8,10,-1,12,-1,14,16,18,-1,-1,20,22,24,-1,-1,26,28,-1,-1,-1,-1,-1,30,-1,-1,-1,-1,-1],"split_conditions":[-1.0404158E0,3.4115413E-1,-5.764E0,3.2565445E-1,3.6235973E-1,-1.4669311E-1,1.4457195E-1,-1.1884426E-1,3.3926457E-1,2.8104084E1,2.5532532E-1,-1.0354725E-1,8.891114E-2,-3.6790257E1,-3.61617E2,3.4605303E-1,5.761793E-2,-7.66361E-2,2.635324E1,-3.3406198E0,6.79458E-2,-2.4545617E-2,1.24093466E-1,-2.138467E-2,-1.2422061E-1,-3.6266714E2,-1.5237643E-2,-1.05999865E-1,5.1314235E-2,8.454736E-3,1.39582E-1],"split_indices":[4,26,11,20,20,0,15,0,24,3,23,0,0,35,0,20,0,0,3,4,0,0,0,0,0,0,0,0,0,0,0],"split_type":[0,0,0,0,0,0,0,0,0,0,0,0,0,0,0,0,0,0,0,0,0,0,0,0,0,0,0,0,0,0,0],"sum_hessian":[6.421553E1,5.2807663E1,1.1407867E1,2.5389925E1,2.741774E1,7.5996747E0,3.8081927E0,3.8381703E0,2.1551754E1,5.85657E0,2.1561169E1,1.6664084E0,2.1417844E0,1.4776132E1,6.775623E0,3.8901756E0,1.9663941E0,1.6936525E0,1.9867517E1,1.2581398E1,2.1947336E0,1.955917E0,4.819706E0,1.9301105E0,1.9600651E0,1.8144495E1,1.7230226E0,1.0134733E1,2.4466648E0,1.4494555E0,1.669504E1],"tree_param":{"num_deleted":"0","num_feature":"39","num_nodes":"31","size_leaf_vector":"1"}},{"base_weights":[1.2489123E-2,2.30111E-1,-9.804544E-1,-7.466795E-1,4.3579417E-1,5.9637584E-2,-1.2167699E0,-1.2718686E-1,2.9777557E-1,7.3061615E-1,-1.7898822E-1,-4.1384238E-1,-1.4000057E-1,-3.348226E-2,7.633101E-2,1.5252782E-1,1.2011917E0,-7.131566E-1,6.146648E-1,2.7529443E-2,-9.169842E-2,-9.6009004E-1,5.582005E-1,1.3829376E0,4.0208077E-1,-9.8812646E-1,6.558623E-2,-4.4444448E-1,1.2971963E-1,-1.2103504E-1,-1.4325916E-2,7.958873E-2,-6.4339064E-2,1.5031755E-1,1.1153503E-2,9.1599114E-2,-5.8334082E-2,-4.691811E-3,-1.346519E-1,-9.2633665E-2,2.430235E-2],"categories":[],"categories_nodes":[],"categories_segments":[],"categories_sizes":[],"default_left":[0,0,0,0,0,0,0,0,0,0,0,0,0,0,0,0,0,0,0,0,0,0,0,0,0,0,0,0,0,0,0,0,0,0,0,0,0,0,0,0,0],"id":5,"left_children":[1,3,5,7,9,-1,11,-1,13,15,17,19,-1,-1,-1,21,23,25,27,-1,-1,29,31,33,35,37,-1,39,-1,-1,-1,-1,-1,-1,-1,-1,-1,-1,-1,-1,-1],"loss_changes":[1.4139457E1,1.1099121E1,5.109803E0,5.697457E0,8.274139E0,0E0,9.7439194E-1,0E0,1.4496255E0,8.130983E0,6.95248E0,1.425072E0,0E0,0E0,0E0,7.243231E0,1.8697777E0,4.279602E0,5.4331517E0,0E0,0E0,7.134168E-1,3.802803E0,1.8499298E0,2.815668E0,2.7812757E0,0E0,1.3441095E0,0E0,0E0,0E0,0E0,0E0,0E0,0E0,0E0,0E0,0E0,0E0,0E0,0E0],"parents":[2147483647,0,0,1,1,2,2,3,3,4,4,6,6,8,8,9,9,10,10,11,11,15,15,16,16,17,17,18,18,21,21,22,22,23,23,24,24,25,25,27,27],"right_children":[2,4,6,8,10,-1,12,-1,14,16,18,20,-1,-1,-1,22,24,26,28,-1,-1,30,32,34,36,38,-1,40,-1,-1,-1,-1,-1,-1,-1,-1,-1,-1,-1,-1,-1],"split_conditions":[-1.1419222E1,3.0157137E-1,-7.3412415E1,-6.555612E0,-6.428508E0,5.9637584E-2,-1.347533E1,-1.2718686E-1,-8.088024E0,3.212076E-1,4.3276274E-1,-7.156513E1,-1.4000057E-1,-3.348226E-2,7.633101E-2,3.0974287E-1,3.4604397E-1,3.9117014E-1,3.0392852E-1,2.7529443E-2,-9.169842E-2,5.500447E1,-6.562559E0,4.3487272E-1,-3.1328088E2,-4.1943382E1,6.558623E-2,4.571255E0,1.2971963E-1,-1.2103504E-1,-1.4325916E-2,7.958873E-2,-6.4339064E-2,1.5031755E-1,1.1153503E-2,9.1599114E-2,-5.8334082E-2,-4.691811E-3,-1.346519E-1,-9.2633665E-2,2.430235E-2],"split_indices":[2,28,29,5,9,0,12,0,9,25,18,29,0,0,0,18,17,27,21,0,0,1,6,21,0,35,0,5,0,0,0,0,0,0,0,0,0,0,0,0,0],"split_type":[0,0,0,0,0,0,0,0,0,0,0,0,0,0,0,0,0,0,0,0,0,0,0,0,0,0,0,0,0,0,0,0,0,0,0,0,0,0,0,0,0],"sum_hessian":[6.3390236E1,5.2624794E1,1.076544E1,8.69621E0,4.3928585E1,1.204526E0,9.560914E0,5.641652E0,3.0545576E0,2.9563059E1,1.4365527E1,2.3819373E0,7.178977E0,1.4139583E0,1.6405993E0,1.3860261E1,1.5702797E1,8.647052E0,5.718475E0,1.1962805E0,1.1856568E0,3.33817E0,1.0522091E1,1.2197959E1,3.5048387E0,7.4324536E0,1.2145985E0,2.3777153E0,3.3407598E0,2.1865053E0,1.1516647E0,9.06632E0,1.4557703E0,1.0977506E1,1.2204528E0,2.3498294E0,1.1550093E0,2.3615303E0,5.0709233E0,1.1935884E0,1.1841271E0],"tree_param":{"num_deleted":"0","num_feature":"39","num_nodes":"41","size_leaf_vector":"1"}},{"base_weights":[-3.2075644E-2,1.4369601E-1,-8.2818604E-1,8.240181E-1,-1.8130565E-1,5.6549817E-2,-1.0597637E0,1.0245037E0,-7.256692E-2,-5.719815E-1,3.444786E-1,-1.1646998E0,-1.6727861E-2,1.3328071E-1,1.2235477E0,-8.3434427E-1,9.69634E-2,-1.0910016E-1,6.318751E-1,-5.14946E-2,-1.2955607E-1,7.258963E-2,-6.1312377E-2,1.2233066E-2,1.3344519E0,-1.0438948E0,1.2260683E-1,-9.7610824E-2,9.0745085E-1,4.1606452E-2,1.397874E-1,2.0656599E-2,-1.1715782E-1,-9.4326615E-2,1.0400529E-1,-9.774425E-3,1.19621515E-1],"categories":[],"categories_nodes":[],"categories_segments":[],"categories_sizes":[],"default_left":[0,0,0,0,0,0,0,0,0,0,0,0,0,0,0,0,0,0,0,0,0,0,0,0,0,0,0,0,0,0,0,0,0,0,0,0,0],"id":6,"left_children":[1,3,5,7,9,-1,11,13,-1,15,17,19,-1,21,23,25,-1,-1,27,-1,-1,-1,-1,-1,29,31,33,-1,35,-1,-1,-1,-1,-1,-1,-1,-1],"loss_changes":[8.400358E0,1.1056436E1,4.1014357E0,5.754137E0,7.222485E0,0E0,7.091999E-1,2.4436722E0,0E0,8.897411E0,6.9618025E0,5.3007126E-2,0E0,2.1281295E0,1.2888527E0,3.6627254E0,0E0,0E0,6.77973E0,0E0,0E0,0E0,0E0,0E0,4.1685104E-2,2.5675936E0,4.952623E0,0E0,3.5632954E0,0E0,0E0,0E0,0E0,0E0,0E0,0E0,0E0],"parents":[2147483647,0,0,1,1,2,2,3,3,4,4,6,6,7,7,9,9,10,10,11,11,13,13,14,14,15,15,18,18,24,24,25,25,26,26,28,28],"right_children":[2,4,6,8,10,-1,12,14,-1,16,18,20,-1,22,24,26,-1,-1,28,-1,-1,-1,-1,-1,30,32,34,-1,36,-1,-1,-1,-1,-1,-1,-1,-1],"split_conditions":[-1.1419222E1,-4.1974266E1,-7.3412415E1,4.3590957E-1,-1.6068762E1,5.6549817E-2,3.3431077E-1,-4.5924774E1,-7.256692E-2,-3.602221E1,2.4322134E-1,2.92046E-1,-1.6727861E-2,3.3003652E-1,3.010768E-1,3.5954294E-1,9.69634E-2,-1.0910016E-1,-5.9102036E1,-5.14946E-2,-1.2955607E-1,7.258963E-2,-6.1312377E-2,1.2233066E-2,-4.4861134E1,-2.3214554E1,-8.8933325E0,-9.7610824E-2,3.0974287E-1,4.1606452E-2,1.397874E-1,2.0656599E-2,-1.1715782E-1,-9.4326615E-2,1.0400529E-1,-9.774425E-3,1.19621515E-1],"split_indices":[2,35,29,28,10,0,25,38,0,34,23,17,0,17,18,23,0,0,32,0,0,0,0,0,35,7,7,0,18,0,0,0,0,0,0,0,0],"split_type":[0,0,0,0,0,0,0,0,0,0,0,0,0,0,0,0,0,0,0,0,0,0,0,0,0,0,0,0,0,0,0,0,0,0,0,0,0],"sum_hessian":[5.8180557E1,4.8329487E1,9.85107E0,1.512761E1,3.3201878E1,1.1981869E0,8.652884E0,1.369479E1,1.4328212E0,1.899791E1,1.4203966E1,7.4696174E0,1.1832665E0,2.8049917E0,1.0889797E1,1.6626999E1,2.3709114E0,1.9029593E0,1.2301007E1,2.0794992E0,5.390118E0,1.578891E0,1.2261008E0,1.1887914E0,9.701006E0,1.3565587E1,3.0614107E0,1.4277903E0,1.0873217E1,1.1150275E0,8.5859785E0,1.1995969E0,1.2365991E1,1.4031323E0,1.6582783E0,2.5741277E0,8.299089E0],"tree_param":{"num_deleted":"0","num_feature":"39","num_nodes":"37","size_leaf_vector":"1"}},{"base_weights":[5.759526E-2,2.005071E-1,-1.0602391E0,-2.748176E-1,5.57691E-1,-1.0481779E-2,-1.2226825E-1,-4.7607306E-1,5.5577356E-1,7.7598447E-1,-4.9264586E-1,-6.517975E-1,8.116802E-2,1.15590766E-1,-4.5642138E-2,-5.3778052E-2,1.0436602E0,3.9958775E-1,-1.1598543E-1,-8.2730335E-1,7.017568E-2,-1.1564787E-1,5.385757E-1,-5.2444793E-2,1.1673799E0,7.200555E-2,-1.1556373E-2,-9.811962E-2,6.2790714E-2,9.5159575E-2,-3.8043913E-2,1.2642609E-1,-5.283854E-4],"categories":[],"categories_nodes":[],"categories_segments":[],"categories_sizes":[],"default_left":[0,0,0,0,0,0,0,0,0,0,0,0,0,0,0,0,0,0,0,0,0,0,0,0,0,0,0,0,0,0,0,0,0],"id":7,"left_children":[1,3,5,7,9,-1,-1,11,13,15,17,19,-1,-1,-1,21,23,25,-1,27,-1,-1,29,-1,31,-1,-1,-1,-1,-1,-1,-1,-1],"loss_changes":[9.935534E0,9.457914E0,9.6727943E-1,4.3071423E0,7.6324263E0,0E0,0E0,5.0560565E0,3.673119E0,5.957158E0,4.066684E0,4.8940897E0,0E0,0E0,0E0,5.4768825E0,4.5189476E0,6.335254E-1,0E0,4.3185263E0,0E0,0E0,2.4559731E0,0E0,2.1623516E0,0E0,0E0,0E0,0E0,0E0,0E0,0E0,0E0],"parents":[2147483647,0,0,1,1,2,2,3,3,4,4,7,7,8,8,9,9,10,10,11,11,15,15,16,16,17,17,19,19,22,22,24,24],"right_children":[2,4,6,8,10,-1,-1,12,14,16,18,20,-1,-1,-1,22,24,26,-1,28,-1,-1,30,-1,32,-1,-1,-1,-1,-1,-1,-1,-1],"split_conditions":[1.5836361E-1,3.3638826E-1,-2.217454E1,3.9229208E-1,-1.1419222E1,-1.0481779E-2,-1.2226825E-1,-3.7247635E1,-6.857188E0,3.6235973E-1,3.569026E-1,2.0448394E3,8.116802E-2,1.15590766E-1,-4.5642138E-2,3.398271E-1,2.5532532E-1,2.7472442E-1,-1.1598543E-1,-2.0192404E0,7.017568E-2,-1.1564787E-1,-5.1485353E0,-5.2444793E-2,2.635324E1,7.200555E-2,-1.1556373E-2,-9.811962E-2,6.2790714E-2,9.5159575E-2,-3.8043913E-2,1.2642609E-1,-5.283854E-4],"split_indices":[4,26,7,28,2,0,0,36,4,20,27,13,0,0,0,28,23,23,0,4,0,0,7,0,3,0,0,0,0,0,0,0,0],"split_type":[0,0,0,0,0,0,0,0,0,0,0,0,0,0,0,0,0,0,0,0,0,0,0,0,0,0,0,0,0,0,0,0,0],"sum_hessian":[5.986285E1,5.3804707E1,6.058145E0,2.3183594E1,3.062111E1,1.1194261E0,4.938719E0,1.900535E1,4.178244E0,2.556839E1,5.052721E0,1.7157867E1,1.847482E0,2.5339024E0,1.6443415E0,6.4312825E0,1.9137108E1,2.3334239E0,2.7192974E0,1.5532649E1,1.6252178E0,1.9146698E0,4.516613E0,1.1625944E0,1.7974514E1,1.193322E0,1.1401018E0,1.4341708E1,1.1909416E0,3.0917008E0,1.424912E0,1.65307E1,1.443813E0],"tree_param":{"num_deleted":"0","num_feature":"39","num_nodes":"33","size_leaf_vector":"1"}},{"base_weights":[8.284864E-2,-3.5406354E-1,4.444104E-1,2.7206296E-1,-6.5159893E-1,-5.804122E-1,6.948443E-1,1.1852725E-1,-4.084694E-1,-8.9689547E-1,3.0085352E-1,4.4622358E-2,-9.9188864E-1,8.6357737E-1,-6.346171E-1,-9.805828E-2,3.2809508E-1,-1.111597E0,8.787241E-2,9.428852E-2,-7.860813E-2,-1.2249487E-1,-1.0363359E-2,9.65683E-1,-5.759531E-2,-8.639513E-2,-5.251573E-3,-4.711743E-2,8.88015E-2,-1.090352E-2,-1.1870685E0,-2.7261311E-3,1.0890115E0,-2.3776485E-2,-1.278068E-1,9.493433E-2,-8.901235E-2,1.2407066E-1,2.7304081E-2],"categories":[],"categories_nodes":[],"categories_segments":[],"categories_sizes":[],"default_left":[0,0,0,0,0,0,0,0,0,0,0,0,0,0,0,0,0,0,0,0,0,0,0,0,0,0,0,0,0,0,0,0,0,0,0,0,0,0,0],"id":8,"left_children":[1,3,5,7,9,11,13,-1,15,17,19,-1,21,23,25,-1,27,29,-1,-1,-1,-1,-1,31,-1,-1,-1,-1,-1,-1,33,35,37,-1,-1,-1,-1,-1,-1],"loss_changes":[9.345565E0,5.187521E0,8.685366E0,6.306539E0,4.5979886E0,3.3498096E0,6.467474E0,0E0,2.8973022E0,6.688587E0,3.9113517E0,0E0,9.5434093E-1,4.0602207E0,4.2831528E-1,0E0,1.9495155E0,9.1534233E-1,0E0,0E0,0E0,0E0,0E0,2.7062283E0,0E0,0E0,0E0,0E0,0E0,0E0,7.966881E-1,3.8480031E0,2.1466904E0,0E0,0E0,0E0,0E0,0E0,0E0],"parents":[2147483647,0,0,1,1,2,2,3,3,4,4,5,5,6,6,8,8,9,9,10,10,12,12,13,13,14,14,16,16,17,17,23,23,30,30,31,31,32,32],"right_children":[2,4,6,8,10,12,14,-1,16,18,20,-1,22,24,26,-1,28,30,-1,-1,-1,-1,-1,32,-1,-1,-1,-1,-1,-1,34,36,38,-1,-1,-1,-1,-1,-1],"split_conditions":[3.2270545E-1,-1.7105085E1,3.0392852E-1,-3.978585E1,2.0179536E3,-1.0070479E1,1.5836361E-1,1.1852725E-1,3.6372882E-1,-3.6703606E1,-4.3252842E1,4.4622358E-2,-1.242403E1,-3.4921634E0,3.9507574E-1,-9.805828E-2,3.2506284E-1,-4.614454E1,8.787241E-2,9.428852E-2,-7.860813E-2,-1.2249487E-1,-1.0363359E-2,2.6318234E-1,-5.759531E-2,-8.639513E-2,-5.251573E-3,-4.711743E-2,8.88015E-2,-1.090352E-2,8.522727E1,-9.768072E0,-1.1711157E1,-2.3776485E-2,-1.278068E-1,9.493433E-2,-8.901235E-2,1.2407066E-1,2.7304081E-2],"split_indices":[25,2,21,35,13,4,4,0,21,35,34,0,6,7,21,0,23,36,0,0,0,0,0,23,0,0,0,0,0,0,16,9,12,0,0,0,0,0,0],"split_type":[0,0,0,0,0,0,0,0,0,0,0,0,0,0,0,0,0,0,0,0,0,0,0,0,0,0,0,0,0,0,0,0,0,0,0,0,0,0,0],"sum_hessian":[5.7164036E1,2.589418E1,3.1269855E1,8.368762E0,1.7525417E1,5.881996E0,2.538786E1,3.2567844E0,5.111978E0,1.3982632E1,3.5427854E0,1.6588106E0,4.2231855E0,2.2839535E1,2.5483258E0,2.690718E0,2.4212599E0,1.2807912E1,1.1747196E0,2.3105285E0,1.2322569E0,3.0451498E0,1.1780357E0,2.1634193E1,1.2053409E0,1.480751E0,1.0675749E0,1.0627345E0,1.3585255E0,1.067814E0,1.1740098E1,2.5543847E0,1.907981E1,1.3429813E0,1.0397117E1,1.1986127E0,1.355772E0,1.5649857E1,3.429952E0],"tree_param":{"num_deleted":"0","num_feature":"39","num_nodes":"39","size_leaf_vector":"1"}},{"base_weights":[-7.007028E-2,1.1455298E-1,-8.781985E-1,6.994414E-1,-1.2759346E-1,2.873377E-2,-1.0383229E0,-2.9676086E-1,1.0332806E0,-9.272237E-1,9.345852E-2,-1.2520792E-1,-3.040932E-1,-8.6840796E-1,7.559492E-2,1.0462936E-2,1.2005732E0,-1.14691675E-1,1.5955063E-2,-2.2042456E-1,6.6819173E-1,-8.525844E-2,4.799887E-2,-2.7488766E-2,-1.0215435E-1,3.6925536E-2,1.2647982E-1,-3.905372E-1,5.7290006E-1,9.020599E-1,-6.8085596E-2,2.6786033E-2,-7.867676E-2,1.0012926E-1,-2.0953586E-2,1.202885E-2,1.1760248E-1],"categories":[],"categories_nodes":[],"categories_segments":[],"categories_sizes":[],"default_left":[0,0,0,0,0,0,0,0,0,0,0,0,0,0,0,0,0,0,0,0,0,0,0,0,0,0,0,0,0,0,0,0,0,0,0,0,0],"id":9,"left_children":[1,3,5,7,9,-1,11,13,15,17,19,-1,21,23,-1,-1,25,-1,-1,27,29,-1,-1,-1,-1,-1,-1,31,33,35,-1,-1,-1,-1,-1,-1,-1],"loss_changes":[8.716817E0,6.872483E0,2.3242579E0,5.0215874E0,6.223278E0,0E0,1.151164E0,3.265398E0,1.5587444E0,2.0000224E0,5.217743E0,0E0,1.9237704E0,1.6855001E-2,0E0,0E0,1.8371582E-2,0E0,0E0,2.7785277E0,3.8247461E0,0E0,0E0,0E0,0E0,0E0,0E0,4.4324675E0,1.4660738E0,1.8081579E0,0E0,0E0,0E0,0E0,0E0,0E0,0E0],"parents":[2147483647,0,0,1,1,2,2,3,3,4,4,6,6,7,7,8,8,9,9,10,10,12,12,13,13,16,16,19,19,20,20,27,27,28,28,29,29],"right_children":[2,4,6,8,10,-1,12,14,16,18,20,-1,22,24,-1,-1,26,-1,-1,28,30,-1,-1,-1,-1,-1,-1,32,34,36,-1,-1,-1,-1,-1,-1,-1],"split_conditions":[-1.1419222E1,-4.2179283E1,-6.971971E1,-4.5924774E1,3.0157137E-1,2.873377E-2,3.60909E-1,-7.131298E1,3.0228493E-1,-3.7253902E1,3.971645E-1,-1.2520792E-1,-4.2310383E1,3.3816656E-1,7.559492E-2,1.0462936E-2,-1.4590213E1,-1.14691675E-1,1.5955063E-2,-3.7401283E1,-1.3208362E1,-8.525844E-2,4.799887E-2,-2.7488766E-2,-1.0215435E-1,3.6925536E-2,1.2647982E-1,-4.0728283E1,3.9056897E-1,3.4351534E-1,-6.8085596E-2,2.6786033E-2,-7.867676E-2,1.0012926E-1,-2.0953586E-2,1.202885E-2,1.1760248E-1],"split_indices":[2,35,30,38,28,0,28,29,22,36,19,0,35,28,0,0,9,0,0,35,12,0,0,0,0,0,0,35,20,27,0,0,0,0,0,0,0],"split_type":[0,0,0,0,0,0,0,0,0,0,0,0,0,0,0,0,0,0,0,0,0,0,0,0,0,0,0,0,0,0,0,0,0,0,0,0,0],"sum_hessian":[5.6749718E1,4.689454E1,9.855178E0,1.3177258E1,3.371728E1,1.0944284E0,8.76075E0,3.3353577E0,9.8419E0,6.610383E0,2.71069E1,6.2390723E0,2.5216775E0,2.2750332E0,1.0603244E0,1.750454E0,8.091446E0,5.452759E0,1.157624E0,1.7930735E1,9.176164E0,1.4323412E0,1.0893363E0,1.0398519E0,1.2351813E0,1.0643299E0,7.027116E0,1.5182806E1,2.7479289E0,8.102812E0,1.0733516E0,5.825997E0,9.356809E0,1.594959E0,1.15297E0,2.4761288E0,5.626683E0],"tree_param":{"num_deleted":"0","num_feature":"39","num_nodes":"37","size_leaf_vector":"1"}},{"base_weights":[-3.153104E-2,-5.4182315E-1,1.8908148E-1,-8.0496603E-1,2.2034138E-1,8.908425E-1,-7.468239E-3,-9.3989193E-1,1.2861128E-2,6.785368E-1,-8.252938E-2,-1.5300586E-2,1.2170207E-1,1.8795465E-1,-1.0025592E0,-1.1222098E0,-3.7965754E-1,9.69072E-2,-2.5283326E-3,3.7041035E-1,-1.0384386E-1,-1.2298651E-1,-2.22659E-3,-2.3816314E-2,-1.2476039E-1,5.0625104E-2,-8.393086E-2,-5.715157E-1,5.720387E-1,-1.0845896E-1,4.2423084E-2,9.056563E-2,1.5201867E-3],"categories":[],"categories_nodes":[],"categories_segments":[],"categories_sizes":[],"default_left":[0,0,0,0,0,0,0,0,0,0,0,0,0,0,0,0,0,0,0,0,0,0,0,0,0,0,0,0,0,0,0,0,0],"id":10,"left_children":[1,3,5,7,9,11,13,15,-1,17,-1,-1,-1,19,21,23,25,-1,-1,27,-1,-1,-1,-1,-1,-1,-1,29,31,-1,-1,-1,-1],"loss_changes":[6.6546392E0,3.7525325E0,5.7136655E0,1.8171034E0,3.128054E0,3.2714148E0,6.6669006E0,7.879782E-1,0E0,8.988286E-1,0E0,0E0,0E0,6.803965E0,1.2263408E0,6.4027977E-1,2.2286792E0,0E0,0E0,5.20972E0,0E0,0E0,0E0,0E0,0E0,0E0,0E0,3.0315971E0,4.013096E0,0E0,0E0,0E0,0E0],"parents":[2147483647,0,0,1,1,2,2,3,3,4,4,5,5,6,6,7,7,9,9,13,13,14,14,15,15,16,16,19,19,27,27,28,28],"right_children":[2,4,6,8,10,12,14,16,-1,18,-1,-1,-1,20,22,24,26,-1,-1,28,-1,-1,-1,-1,-1,-1,-1,30,32,-1,-1,-1,-1],"split_conditions":[3.29212E-1,3.3638826E-1,-2.2846342E1,-8.874744E0,-1.157874E1,3.7015355E-1,-6.0389633E0,3.3266556E-1,1.2861128E-2,-3.4172726E0,-8.252938E-2,-1.5300586E-2,1.2170207E-1,1.14945054E-1,-3.7943317E1,-4.6463722E1,3.4849504E-1,9.69072E-2,-2.5283326E-3,1.3833854E-1,-1.0384386E-1,-1.2298651E-1,-2.22659E-3,-2.3816314E-2,-1.2476039E-1,5.0625104E-2,-8.393086E-2,3.610729E-1,3.3798558E-1,-1.0845896E-1,4.2423084E-2,9.056563E-2,1.5201867E-3],"split_indices":[27,26,2,8,8,19,9,25,0,4,0,0,0,4,34,34,25,0,0,15,0,0,0,0,0,0,0,18,17,0,0,0,0],"split_type":[0,0,0,0,0,0,0,0,0,0,0,0,0,0,0,0,0,0,0,0,0,0,0,0,0,0,0,0,0,0,0,0,0],"sum_hessian":[5.7201946E1,1.6826075E1,4.0375874E1,1.2465954E1,4.3601203E0,8.061324E0,3.2314552E1,1.0885898E1,1.5800555E0,3.2757635E0,1.0843565E0,2.0456538E0,6.0156703E0,2.768809E1,4.626462E0,7.4562826E0,3.4296153E0,2.0518787E0,1.2238849E0,2.4709866E1,2.9782233E0,3.5489569E0,1.0775049E0,1.286387E0,6.169896E0,1.1369442E0,2.2926712E0,4.033321E0,2.0676544E1,2.602909E0,1.4304119E0,1.2538139E1,8.138405E0],"tree_param":{"num_deleted":"0","num_feature":"39","num_nodes":"33","size_leaf_vector":"1"}},{"base_weights":[-2.2598382E-2,-4.0053475E-1,3.226362E-1,1.9627659E-1,-6.6322285E-1,-7.441897E-2,1.0043962E0,9.526692E-2,-4.4387433E-1,-1.0019234E0,2.829592E-2,1.5267836E-1,-9.683101E-2,3.5943136E-1,1.2184767E-1,-7.8475696E-1,4.693041E-2,-1.8053508E-1,-1.2608545E-1,-6.582824E-1,7.551642E-1,-4.5529336E-1,4.5052806E-1,7.705613E-2,-3.845223E-2,-9.9230535E-2,-6.1051524E-3,6.282314E-2,-9.048089E-2,2.104045E-2,-1.0438029E-1,9.574858E-3,1.0207671E-1,2.4209728E-2,-8.380861E-1,-5.079157E-2,6.1561805E-1,-1.00660935E-1,-2.0025456E-2,-6.109428E-2,8.7004334E-2],"categories":[],"categories_nodes":[],"categories_segments":[],"categories_sizes":[],"default_left":[0,0,0,0,0,0,0,0,0,0,0,0,0,0,0,0,0,0,0,0,0,0,0,0,0,0,0,0,0,0,0,0,0,0,0,0,0,0,0,0,0],"id":11,"left_children":[1,3,5,7,9,11,13,-1,15,17,19,21,-1,23,-1,25,-1,27,-1,29,31,33,35,-1,-1,-1,-1,-1,-1,-1,-1,-1,-1,-1,37,-1,39,-1,-1,-1,-1],"loss_changes":[6.946447E0,4.1105547E0,7.6162066E0,4.5537586E0,4.2109656E0,3.9108338E0,9.873276E-1,0E0,2.0189977E0,2.3275957E0,3.912405E0,3.0382504E0,0E0,1.516953E0,0E0,5.7562876E-1,0E0,2.9388502E0,0E0,1.5771543E0,5.6604886E-1,1.7090204E0,2.0537648E0,0E0,0E0,0E0,0E0,0E0,0E0,0E0,0E0,0E0,0E0,0E0,2.140429E-1,0E0,3.6019094E0,0E0,0E0,0E0,0E0],"parents":[2147483647,0,0,1,1,2,2,3,3,4,4,5,5,6,6,8,8,9,9,10,10,11,11,13,13,15,15,17,17,19,19,20,20,21,21,22,22,34,34,36,36],"right_children":[2,4,6,8,10,12,14,-1,16,18,20,22,-1,24,-1,26,-1,28,-1,30,32,34,36,-1,-1,-1,-1,-1,-1,-1,-1,-1,-1,-1,38,-1,40,-1,-1,-1,-1],"split_conditions":[3.2318485E-1,-1.7105085E1,-1.5784877E1,-4.271062E1,-1.4146851E1,-1.3573402E1,5.0230343E1,9.526692E-2,4.000064E-1,4.797283E1,-6.270284E1,2.960877E-1,-9.683101E-2,-4.428217E1,1.2184767E-1,3.7912807E-1,4.693041E-2,-1.347533E1,-1.2608545E-1,-1.7147495E1,5.1683487E1,-1.9552359E1,-3.6543335E2,7.705613E-2,-3.845223E-2,-9.9230535E-2,-6.1051524E-3,6.282314E-2,-9.048089E-2,2.104045E-2,-1.0438029E-1,9.574858E-3,1.0207671E-1,2.4209728E-2,4.199853E-1,-5.079157E-2,3.0836385E-1,-1.00660935E-1,-2.0025456E-2,-6.109428E-2,8.7004334E-2],"split_indices":[25,2,10,37,10,12,1,0,19,1,31,22,0,37,0,23,0,12,0,6,1,12,0,0,0,0,0,0,0,0,0,0,0,0,19,0,26,0,0,0,0],"split_type":[0,0,0,0,0,0,0,0,0,0,0,0,0,0,0,0,0,0,0,0,0,0,0,0,0,0,0,0,0,0,0,0,0,0,0,0,0,0,0,0,0],"sum_hessian":[5.1248566E1,2.4389084E1,2.6859484E1,7.5312834E0,1.68578E1,1.753689E1,9.322593E0,3.2284276E0,4.302856E0,1.1014237E1,5.843562E0,1.4645364E1,2.8915272E0,2.9908736E0,6.331719E0,3.235645E0,1.0672107E0,3.0466866E0,7.9675508E0,3.0535896E0,2.7899725E0,4.6418347E0,1.0003529E1,1.9032941E0,1.0875795E0,2.2260892E0,1.0095558E0,1.5020335E0,1.5446533E0,1.0782405E0,1.9753491E0,1.1917341E0,1.5982385E0,1.7752136E0,2.8666213E0,1.1647688E0,8.838759E0,1.8101757E0,1.0564456E0,1.2777206E0,7.5610394E0],"tree_param":{"num_deleted":"0","num_feature":"39","num_nodes":"41","size_leaf_vector":"1"}},{"base_weights":[4.1965473E-2,1.6272715E-1,-8.9981806E-1,-2.7311963E-1,4.9471202E-1,-1.3152428E-2,-1.0435118E-1,-4.5562857E-1,7.524014E-1,6.264567E-1,-7.196169E-2,-6.518866E-1,3.0891877E-1,1.42558515E-2,9.344378E-2,3.4555608E-1,1.1078924E0,5.558163E-2,-8.2754385E-1,9.732002E-2,-4.504278E-2,-8.0488175E-2,8.167314E-1,1.2050646E-1,2.1192957E-2,-9.795535E-2,2.0233836E-2,6.157992E-2,-6.675173E-2,-2.7149653E-2,1.0793308E-1],"categories":[],"categories_nodes":[],"categories_segments":[],"categories_sizes":[],"default_left":[0,0,0,0,0,0,0,0,0,0,0,0,0,0,0,0,0,0,0,0,0,0,0,0,0,0,0,0,0,0,0],"id":12,"left_children":[1,3,5,7,9,-1,-1,11,13,15,-1,17,19,-1,-1,21,23,-1,25,-1,-1,27,29,-1,-1,-1,-1,-1,-1,-1,-1],"loss_changes":[6.1135516E0,6.9865017E0,5.379729E-1,4.295246E0,4.8076653E0,0E0,0E0,2.9847221E0,2.6283383E-1,3.011938E0,0E0,3.6595097E0,2.6918514E0,0E0,0E0,3.5398314E0,5.1044846E-1,0E0,2.322425E0,0E0,0E0,4.4979377E0,2.6670809E0,0E0,0E0,0E0,0E0,0E0,0E0,0E0,0E0],"parents":[2147483647,0,0,1,1,2,2,3,3,4,4,7,7,8,8,9,9,11,11,12,12,15,15,16,16,18,18,21,21,22,22],"right_children":[2,4,6,8,10,-1,-1,12,14,16,-1,18,20,-1,-1,22,24,-1,26,-1,-1,28,30,-1,-1,-1,-1,-1,-1,-1,-1],"split_conditions":[1.5836361E-1,3.3373106E-1,-2.1811062E1,4.4235438E-1,-8.948531E0,-1.3152428E-2,-1.0435118E-1,3.9229208E-1,-1.03382845E1,1.5887353E-1,-7.196169E-2,9.375E1,-6.857188E0,1.42558515E-2,9.344378E-2,-3.9943783E1,-1.3063382E1,5.558163E-2,-1.1185237E1,9.732002E-2,-4.504278E-2,1.9463814E1,2.5532532E-1,1.2050646E-1,2.1192957E-2,-9.795535E-2,2.0233836E-2,6.157992E-2,-6.675173E-2,-2.7149653E-2,1.0793308E-1],"split_indices":[4,26,7,22,2,0,0,28,5,15,0,16,4,0,0,34,2,0,10,0,0,3,23,0,0,0,0,0,0,0,0],"split_type":[0,0,0,0,0,0,0,0,0,0,0,0,0,0,0,0,0,0,0,0,0,0,0,0,0,0,0,0,0,0,0],"sum_hessian":[5.1466858E1,4.6350685E1,5.1161757E0,2.0117159E1,2.6233524E1,1.1078885E0,4.008287E0,1.7549616E1,2.567543E0,2.4102694E1,2.1308305E0,1.4082117E1,3.467499E0,1.0001287E0,1.5674143E0,1.6306305E1,7.7963886E0,1.5133207E0,1.2568796E1,1.6993061E0,1.7681929E0,8.998707E0,7.307598E0,6.7223215E0,1.0740671E0,1.0994837E1,1.5739596E0,4.0938716E0,4.904835E0,1.414003E0,5.893595E0],"tree_param":{"num_deleted":"0","num_feature":"39","num_nodes":"31","size_leaf_vector":"1"}},{"base_weights":[-6.659797E-2,3.4565908E-1,-2.8004706E-1,6.437148E-1,-4.5781028E-1,-5.855672E-1,1.08591676E-1,-3.3288884E-1,9.561523E-1,4.403991E-2,-8.47326E-2,-7.779323E-2,-1.0315537E0,7.888228E-1,-3.1706247E-1,5.1470138E-2,-8.772387E-2,4.84873E-3,1.1522267E-1,6.1688846E-1,-4.0784532E-1,-1.1543616E0,-1.907024E-3,-3.7265398E-2,1.08621016E-1,1.6252467E-1,-8.448727E-1,-6.856397E-3,9.582864E-2,-9.542609E-1,4.6203765E-1,-1.2776636E-1,-9.67105E-3,6.719263E-1,-8.691924E-2,-1.09960996E-1,-1.5309317E-3,-2.6655158E-2,-1.06722526E-1,-2.6151454E-2,8.762618E-2,-3.384902E-3,1.112203E-1],"categories":[],"categories_nodes":[],"categories_segments":[],"categories_sizes":[],"default_left":[0,0,0,0,0,0,0,0,0,0,0,0,0,0,0,0,0,0,0,0,0,0,0,0,0,0,0,0,0,0,0,0,0,0,0,0,0,0,0,0,0,0,0],"id":13,"left_children":[1,3,5,7,9,11,13,15,17,-1,-1,19,21,23,25,-1,-1,-1,-1,27,29,31,-1,-1,-1,33,35,-1,-1,37,39,-1,-1,41,-1,-1,-1,-1,-1,-1,-1,-1,-1],"loss_changes":[4.55061E0,4.5367336E0,4.088794E0,4.387537E0,2.254541E0,4.2533317E0,4.8144827E0,2.2851462E0,1.7882595E0,0E0,0E0,2.5512364E0,1.2346201E0,2.5996006E0,2.7723515E0,0E0,0E0,0E0,0E0,9.148054E-1,3.9588904E0,1.0496511E0,0E0,0E0,0E0,3.8912215E0,1.0645082E0,0E0,0E0,9.402561E-2,1.2869153E0,0E0,0E0,1.5219479E0,0E0,0E0,0E0,0E0,0E0,0E0,0E0,0E0,0E0],"parents":[2147483647,0,0,1,1,2,2,3,3,4,4,5,5,6,6,7,7,8,8,11,11,12,12,13,13,14,14,19,19,20,20,21,21,25,25,26,26,29,29,30,30,33,33],"right_children":[2,4,6,8,10,12,14,16,18,-1,-1,20,22,24,26,-1,-1,-1,-1,28,30,32,-1,-1,-1,34,36,-1,-1,38,40,-1,-1,42,-1,-1,-1,-1,-1,-1,-1,-1,-1],"split_conditions":[-4.2179283E1,-1.1419222E1,-1.6112238E1,3.0228493E-1,-7.234221E1,3.3366936E3,-1.3237048E1,-4.382245E1,-4.7469032E1,4.403991E-2,-8.47326E-2,-2.1196426E1,3.873485E-1,2.4322134E-1,-8.87469E0,5.1470138E-2,-8.772387E-2,4.84873E-3,1.1522267E-1,3.1001008E-1,4.0518624E-1,4.3554404E-1,-1.907024E-3,-3.7265398E-2,1.08621016E-1,-1.7194065E1,2.9834256E-1,-6.856397E-3,9.582864E-2,-3.9822132E1,-1.700539E-1,-1.2776636E-1,-9.67105E-3,-1.1542836E1,-8.691924E-2,-1.09960996E-1,-1.5309317E-3,-2.6655158E-2,-1.06722526E-1,-2.6151454E-2,8.762618E-2,-3.384902E-3,1.112203E-1],"split_indices":[35,2,10,22,29,14,12,35,34,0,0,7,27,23,11,0,0,0,0,28,17,19,0,0,0,6,24,0,0,34,11,0,0,10,0,0,0,0,0,0,0,0,0],"split_type":[0,0,0,0,0,0,0,0,0,0,0,0,0,0,0,0,0,0,0,0,0,0,0,0,0,0,0,0,0,0,0,0,0,0,0,0,0,0,0,0,0,0,0],"sum_hessian":[4.9613827E1,1.6713623E1,3.2900204E1,1.23362055E1,4.3774185E0,1.8136145E1,1.4764059E1,2.9741814E0,9.362024E0,1.284583E0,3.0928354E0,9.02979E0,9.106355E0,5.354275E0,9.409783E0,1.1844215E0,1.7897598E0,1.8846973E0,7.4773264E0,2.6284533E0,6.401337E0,7.996323E0,1.110032E0,1.0398684E0,4.314407E0,5.292713E0,4.11707E0,1.1395842E0,1.4888691E0,3.8720906E0,2.5292466E0,6.9751344E0,1.0211885E0,3.7767198E0,1.5159936E0,2.900786E0,1.2162842E0,1.0202961E0,2.8517945E0,1.0550268E0,1.4742197E0,1.8055284E0,1.9711914E0],"tree_param":{"num_deleted":"0","num_feature":"39","num_nodes":"43","size_leaf_vector":"1"}},{"base_weights":[-4.550838E-2,3.5769477E-1,-3.2823002E-1,-8.291907E-2,5.319771E-1,-4.6862265E-1,6.016004E-1,-2.2772723E-1,8.1645125E-1,-5.885253E-1,7.268539E-2,1.01333156E-1,-2.3946067E-2,4.396567E-2,-5.856982E-1,9.555058E-1,-2.0347005E-3,-9.5617634E-1,-1.8676104E-1,-8.724642E-2,1.4695318E-2,3.0148965E-1,1.175876E-1,-1.1422114E0,-7.5071123E-3,-1.0939001E-1,2.2030586E-1,9.244958E-2,-7.7928916E-2,-1.2461318E-1,-2.6640609E-2,3.5045322E-2,-3.562391E-2,-5.4031458E-2,6.2508576E-2],"categories":[],"categories_nodes":[],"categories_segments":[],"categories_sizes":[],"default_left":[0,0,0,0,0,0,0,0,0,0,0,0,0,0,0,0,0,0,0,0,0,0,0,0,0,0,0,0,0,0,0,0,0,0,0],"id":14,"left_children":[1,3,5,-1,7,9,11,13,15,17,-1,-1,-1,-1,19,21,-1,23,25,-1,-1,27,-1,29,31,-1,33,-1,-1,-1,-1,-1,-1,-1,-1],"loss_changes":[5.707404E0,4.721029E0,4.1129103E0,0E0,4.216623E0,4.1631327E0,1.7274187E0,1.6582103E0,1.6237679E0,3.4013681E0,0E0,0E0,0E0,0E0,1.020068E0,1.3524704E0,0E0,2.182104E0,4.976346E0,0E0,0E0,3.6358144E0,0E0,6.119375E-1,5.0454664E-1,0E0,3.3192883E0,0E0,0E0,0E0,0E0,0E0,0E0,0E0,0E0],"parents":[2147483647,0,0,1,1,2,2,4,4,5,5,6,6,7,7,8,8,9,9,14,14,15,15,17,17,18,18,21,21,23,23,24,24,26,26],"right_children":[2,4,6,-1,8,10,12,14,16,18,-1,-1,-1,-1,20,22,-1,24,26,-1,-1,28,-1,30,32,-1,34,-1,-1,-1,-1,-1,-1,-1,-1],"split_conditions":[-4.160745E1,-3.6829153E2,4.0869415E-1,-8.291907E-2,3.5543647E-1,-3.6867973E1,6.7973166E0,-7.140147E1,-1.3003917E0,-1.657748E1,7.268539E-2,1.01333156E-1,-2.3946067E-2,4.396567E-2,-4.2740234E1,-3.473894E2,-2.0347005E-3,-3.0920053E2,3.3148995E-1,-8.724642E-2,1.4695318E-2,-1.6536474E1,1.175876E-1,4.4178995E-1,2.9390866E-1,-1.0939001E-1,3.079141E-1,9.244958E-2,-7.7928916E-2,-1.2461318E-1,-2.6640609E-2,3.5045322E-2,-3.562391E-2,-5.4031458E-2,6.2508576E-2],"split_indices":[35,0,17,0,20,36,5,29,4,10,0,0,0,0,37,0,0,0,19,0,0,2,0,19,24,0,25,0,0,0,0,0,0,0,0],"split_type":[0,0,0,0,0,0,0,0,0,0,0,0,0,0,0,0,0,0,0,0,0,0,0,0,0,0,0,0,0,0,0,0,0,0,0],"sum_hessian":[4.8037537E1,1.969061E1,2.8346926E1,2.0400252E0,1.7650585E1,2.5059301E1,3.2876246E0,4.8630404E0,1.2787544E1,2.3236462E1,1.822839E0,2.0696352E0,1.2179894E0,1.6181142E0,3.2449262E0,1.0843734E1,1.9438109E0,1.141278E1,1.1823683E1,2.1949663E0,1.04996E0,3.3297591E0,7.5139747E0,9.371084E0,2.0416949E0,3.1396883E0,8.683994E0,2.2039258E0,1.125833E0,7.9990964E0,1.3719882E0,1.0050812E0,1.0366137E0,2.8999233E0,5.7840714E0],"tree_param":{"num_deleted":"0","num_feature":"39","num_nodes":"35","size_leaf_vector":"1"}},{"base_weights":[8.017196E-2,2.0146249E-1,-7.8751147E-1,3.393735E-1,-4.3415114E-1,1.1933969E-2,-1.0000684E-1,-8.454635E-2,4.1348657E-1,-9.984961E-2,4.7003664E-2,-3.681944E-1,5.170877E-1,4.998229E-1,-7.388835E-2,-9.663198E-2,6.486321E-2,-4.2974177E-1,6.2204725E-1,7.6491445E-2,-8.929606E-3,-7.494588E-2,1.7027743E-2,5.6027E-3,8.015063E-2],"categories":[],"categories_nodes":[],"categories_segments":[],"categories_sizes":[],"default_left":[0,0,0,0,0,0,0,0,0,0,0,0,0,0,0,0,0,0,0,0,0,0,0,0,0],"id":15,"left_children":[1,3,5,7,9,-1,-1,-1,11,-1,13,15,17,19,-1,-1,-1,21,23,-1,-1,-1,-1,-1,-1],"loss_changes":[5.1851363E0,3.8903403E0,1.2877061E0,3.4799337E0,2.2332644E0,0E0,0E0,0E0,2.9617329E0,0E0,2.2558272E0,3.4176958E0,3.311533E0,6.867091E-1,0E0,0E0,0E0,8.274869E-1,2.7976503E0,0E0,0E0,0E0,0E0,0E0,0E0],"parents":[2147483647,0,0,1,1,2,2,3,3,4,4,8,8,10,10,11,11,12,12,13,13,17,17,18,18],"right_children":[2,4,6,8,10,-1,-1,-1,12,-1,14,16,18,20,-1,-1,-1,22,24,-1,-1,-1,-1,-1,-1],"split_conditions":[1.14945054E-1,-1.1419222E1,-2.0465897E1,2.694758E-1,-3.4567627E2,1.1933969E-2,-1.0000684E-1,-8.454635E-2,2.5693917E-1,-9.984961E-2,-8.554265E0,-4.0437984E0,-3.6525076E2,3.9098045E-1,-7.388835E-2,-9.663198E-2,6.486321E-2,-4.2953304E1,3.0836385E-1,7.6491445E-2,-8.929606E-3,-7.494588E-2,1.7027743E-2,5.6027E-3,8.015063E-2],"split_indices":[4,2,2,21,0,0,0,0,23,0,9,11,0,21,0,0,0,35,26,0,0,0,0,0,0],"split_type":[0,0,0,0,0,0,0,0,0,0,0,0,0,0,0,0,0,0,0,0,0,0,0,0,0],"sum_hessian":[4.6761276E1,4.169999E1,5.061285E0,3.464831E1,7.0516796E0,1.0443277E0,4.0169578E0,1.4270159E0,3.3221294E1,2.7504628E0,4.3012166E0,3.5888793E0,2.9632416E1,2.9598095E0,1.3414072E0,2.29095E0,1.2979292E0,2.6482716E0,2.6984144E1,1.8354778E0,1.1243317E0,1.5652034E0,1.0830681E0,6.81177E0,2.0172375E1],"tree_param":{"num_deleted":"0","num_feature":"39","num_nodes":"25","size_leaf_vector":"1"}},{"base_weights":[2.0387849E-2,1.6638234E-1,-6.345019E-1,-5.385352E-1,3.1728062E-1,9.106043E-2,-9.669013E-2,-1.0913805E-1,1.717735E-1,4.20217E-1,-6.301947E-1,-5.4094177E-2,8.025995E-2,-7.391059E-2,7.458968E-2,-1.4407647E-1,5.5601645E-1,-1.5433271E-2,-7.577824E-2,3.0935818E-1,-9.6906774E-2,2.212396E-1,9.557504E-1,-4.116336E-2,7.678554E-2,9.780749E-2,-1.898761E-2,1.2115159E-1,6.780408E-3],"categories":[],"categories_nodes":[],"categories_segments":[],"categories_sizes":[],"default_left":[0,0,0,0,0,0,0,0,0,0,0,0,0,0,0,0,0,0,0,0,0,0,0,0,0,0,0,0,0],"id":16,"left_children":[1,3,5,7,9,11,-1,-1,13,15,17,-1,-1,-1,-1,19,21,-1,-1,23,-1,25,27,-1,-1,-1,-1,-1,-1],"loss_changes":[4.454122E0,4.2111826E0,2.1377442E0,2.9630044E0,3.3775084E0,2.0459254E0,0E0,0E0,2.6208797E0,2.332109E0,9.722614E-2,0E0,0E0,0E0,0E0,2.7292995E0,2.985958E0,0E0,0E0,1.9521192E0,0E0,4.6364307E0,2.3226385E0,0E0,0E0,0E0,0E0,0E0,0E0],"parents":[2147483647,0,0,1,1,2,2,3,3,4,4,5,5,8,8,9,9,10,10,15,15,16,16,19,19,21,21,22,22],"right_children":[2,4,6,8,10,12,-1,-1,14,16,18,-1,-1,-1,-1,20,22,-1,-1,24,-1,26,28,-1,-1,-1,-1,-1,-1],"split_conditions":[-1.1419222E1,3.0392852E-1,-1.347533E1,-1.3281245E1,8.6985014E-2,3.5340737E3,-9.669013E-2,-1.0913805E-1,3.3797163E-1,-9.788411E0,-1.6988522E1,-5.4094177E-2,8.025995E-2,-7.391059E-2,7.458968E-2,-1.0046588E1,-4.8975797E0,-1.5433271E-2,-7.577824E-2,2.951468E-1,-9.6906774E-2,-2.4022186E1,4.4026524E-1,-4.116336E-2,7.678554E-2,9.780749E-2,-1.898761E-2,1.2115159E-1,6.780408E-3],"split_indices":[2,21,12,6,4,14,0,0,28,5,2,0,0,0,0,5,4,0,0,25,0,2,20,0,0,0,0,0,0],"split_type":[0,0,0,0,0,0,0,0,0,0,0,0,0,0,0,0,0,0,0,0,0,0,0,0,0,0,0,0,0],"sum_hessian":[4.4482048E1,3.6983303E1,7.4987454E0,6.0679884E0,3.0915316E1,2.5841365E0,4.914609E0,3.1105256E0,2.9574628E0,2.8387686E1,2.5276296E0,1.4955337E0,1.0886028E0,1.0322983E0,1.9251646E0,5.494634E0,2.2893051E1,1.0015991E0,1.5260305E0,3.9491208E0,1.5455134E0,1.33042345E1,9.588817E0,1.5748554E0,2.3742654E0,4.197625E0,9.106609E0,7.161581E0,2.4272356E0],"tree_param":{"num_deleted":"0","num_feature":"39","num_nodes":"29","size_leaf_vector":"1"}},{"base_weights":[-6.6217095E-2,2.8081307E-1,-3.2174987E-1,9.353431E-1,-1.6133668E-1,-7.041283E-1,2.2966212E-1,1.0038548E-2,1.0410106E-1,-9.348759E-2,1.3346535E-1,-8.4784824E-1,3.3155814E-2,7.6413983E-1,-4.8955256E-1,-5.8127403E-1,4.6726382E-1,-1.0808234E0,7.645241E-2,1.0593663E0,-3.9664667E-2,4.2929146E-2,-9.444794E-2,1.6317054E-3,-8.4808245E-2,-1.770249E-2,9.8844476E-2,-2.1997793E-2,-1.2089381E0,6.317427E-2,-5.463627E-2,2.354777E-2,1.1821127E-1,-6.977412E-2,7.0137255E-2,-3.539476E-2,-1.3183908E-1],"categories":[],"categories_nodes":[],"categories_segments":[],"categories_sizes":[],"default_left":[0,0,0,0,0,0,0,0,0,0,0,0,0,0,0,0,0,0,0,0,0,0,0,0,0,0,0,0,0,0,0,0,0,0,0,0,0],"id":17,"left_children":[1,3,5,7,9,11,13,-1,-1,-1,15,17,-1,19,21,23,25,27,29,31,-1,-1,-1,-1,-1,33,-1,-1,35,-1,-1,-1,-1,-1,-1,-1,-1],"loss_changes":[4.056619E0,5.794665E0,5.6912584E0,6.0216665E-1,2.9734569E0,2.6228318E0,4.792065E0,0E0,0E0,0E0,2.6383042E0,3.118102E0,0E0,2.8135047E0,2.7083666E0,5.8840823E-1,1.8667432E0,9.830103E-1,1.6495774E0,3.1224966E-1,0E0,0E0,0E0,0E0,0E0,2.8230011E0,0E0,0E0,4.350176E-1,0E0,0E0,0E0,0E0,0E0,0E0,0E0,0E0],"parents":[2147483647,0,0,1,1,2,2,3,3,4,4,5,5,6,6,10,10,11,11,13,13,14,14,15,15,16,16,17,17,18,18,19,19,25,25,28,28],"right_children":[2,4,6,8,10,12,14,-1,-1,-1,16,18,-1,20,22,24,26,28,30,32,-1,-1,-1,-1,-1,34,-1,-1,36,-1,-1,-1,-1,-1,-1,-1,-1],"split_conditions":[-1.827597E1,1.9092304E1,-6.0177646E0,2.8556088E-1,6.1177517E1,-6.523864E1,-8.554265E0,1.0038548E-2,1.0410106E-1,-9.348759E-2,2.8915405E-1,4.1893592E-1,3.3155814E-2,-1.3003917E0,3.163206E-1,2.8687006E-1,4.3195453E-1,1.7535267E3,-1.7147495E1,-1.4563153E1,-3.9664667E-2,4.2929146E-2,-9.444794E-2,1.6317054E-3,-8.4808245E-2,-1.7458261E1,9.8844476E-2,-2.1997793E-2,-4.5155037E1,6.317427E-2,-5.463627E-2,2.354777E-2,1.1821127E-1,-6.977412E-2,7.0137255E-2,-3.539476E-2,-1.3183908E-1],"split_indices":[2,3,5,24,1,30,9,0,0,0,21,22,0,4,17,22,18,13,6,2,0,0,0,0,0,12,0,0,36,0,0,0,0,0,0,0,0],"split_type":[0,0,0,0,0,0,0,0,0,0,0,0,0,0,0,0,0,0,0,0,0,0,0,0,0,0,0,0,0,0,0,0,0,0,0,0,0],"sum_hessian":[4.3726837E1,1.850157E1,2.5225267E1,7.009586E0,1.1491983E1,1.4732212E1,1.0493055E1,1.0064998E0,6.003086E0,2.5720115E0,8.919971E0,1.3096241E1,1.635971E0,5.9837923E0,4.5092635E0,2.6036232E0,6.3163486E0,1.0324541E1,2.7717001E0,4.8401527E0,1.1436397E0,1.511912E0,2.9973516E0,1.0934294E0,1.5101938E0,3.77225E0,2.5440986E0,1.68947E0,8.635071E0,1.4577041E0,1.313996E0,1.0060213E0,3.8341312E0,1.9539971E0,1.8182527E0,1.4604602E0,7.174611E0],"tree_param":{"num_deleted":"0","num_feature":"39","num_nodes":"37","size_leaf_vector":"1"}},{"base_weights":[-6.32323E-2,1.7441513E-1,-3.5245442E-1,-3.564879E-1,4.3173322E-1,-6.635326E-1,2.8365391E-1,-8.6431783E-1,2.2993334E-1,5.520471E-1,-7.550467E-2,-8.0253935E-1,5.076478E-2,7.644527E-1,-5.5756676E-1,-1.7915634E-2,-1.02728285E-1,9.572749E-2,-4.3612128E-1,6.64415E-1,-3.2008152E-2,-3.7457146E-2,-9.435901E-1,3.4558333E-3,1.0170436E-1,-7.79248E-2,-3.4635947E-3,1.2686265E-2,-7.431851E-2,7.658951E-1,-2.2116892E-2,3.837022E-2,-4.5108777E-2,-1.3561747E-2,-1.0210674E0,-3.0884236E-2,8.748169E-2,-1.1196112E-1,-2.0696556E-2],"categories":[],"categories_nodes":[],"categories_segments":[],"categories_sizes":[],"default_left":[0,0,0,0,0,0,0,0,0,0,0,0,0,0,0,0,0,0,0,0,0,0,0,0,0,0,0,0,0,0,0,0,0,0,0,0,0,0,0],"id":18,"left_children":[1,3,5,7,9,11,13,15,17,19,-1,21,-1,23,25,-1,-1,-1,27,29,-1,31,33,-1,-1,-1,-1,-1,-1,35,-1,-1,-1,-1,37,-1,-1,-1,-1],"loss_changes":[3.1866941E0,3.655104E0,4.3120437E0,2.8534672E0,2.9462106E0,2.7346964E0,3.477832E0,3.7284184E-1,2.8043456E0,1.8454947E0,0E0,1.3854685E0,0E0,9.277327E-1,3.5813463E-1,0E0,0E0,0E0,6.5764403E-1,1.5250716E0,0E0,7.1151185E-1,5.548277E-1,0E0,0E0,0E0,0E0,0E0,0E0,1.8807497E0,0E0,0E0,0E0,0E0,5.667515E-1,0E0,0E0,0E0,0E0],"parents":[2147483647,0,0,1,1,2,2,3,3,4,4,5,5,6,6,7,7,8,8,9,9,11,11,13,13,14,14,18,18,19,19,21,21,22,22,29,29,34,34],"right_children":[2,4,6,8,10,12,14,16,18,20,-1,22,-1,24,26,-1,-1,-1,28,30,-1,32,34,-1,-1,-1,-1,-1,-1,36,-1,-1,-1,-1,38,-1,-1,-1,-1],"split_conditions":[-1.3355314E1,3.7383765E-1,4.0287653E-1,-1.1818872E1,-3.3333187E0,4.0361622E-1,-8.87469E0,-4.233046E1,2.8639674E-1,-6.562559E0,-7.550467E-2,-4.4868767E1,5.076478E-2,-2.2144535E1,-1.3026486E1,-1.7915634E-2,-1.02728285E-1,9.572749E-2,-8.162599E0,4.3238777E-1,-3.2008152E-2,-1.4088805E1,-1.3204181E1,3.4558333E-3,1.0170436E-1,-7.79248E-2,-3.4635947E-3,1.2686265E-2,-7.431851E-2,-8.907071E0,-2.2116892E-2,3.837022E-2,-4.5108777E-2,-1.3561747E-2,3.8475435E3,-3.0884236E-2,8.748169E-2,-1.1196112E-1,-2.0696556E-2],"split_indices":[12,19,22,6,7,27,11,36,23,6,0,36,0,7,10,0,0,0,6,21,0,2,12,0,0,0,0,0,0,11,0,0,0,0,14,0,0,0,0],"split_type":[0,0,0,0,0,0,0,0,0,0,0,0,0,0,0,0,0,0,0,0,0,0,0,0,0,0,0,0,0,0,0,0,0,0,0,0,0,0,0],"sum_hessian":[4.4469074E1,2.4628956E1,1.9840117E1,7.914411E0,1.6714544E1,1.3295206E1,6.5449114E0,3.9874597E0,3.9269516E0,1.566163E1,1.0529146E0,1.2165991E1,1.1292146E0,4.2226934E0,2.3222182E0,1.1695633E0,2.8178964E0,1.6681144E0,2.2588372E0,1.4085035E1,1.5765942E0,2.0907855E0,1.0075206E1,1.3778969E0,2.8447967E0,1.2866328E0,1.0355854E0,1.0043223E0,1.2545149E0,1.2758209E1,1.3268266E0,1.0718161E0,1.0189695E0,1.1222478E0,8.952958E0,1.0051254E0,1.1753083E1,7.651502E0,1.3014557E0],"tree_param":{"num_deleted":"0","num_feature":"39","num_nodes":"39","size_leaf_vector":"1"}},{"base_weights":[1.8066391E-2,4.8307458E-1,-1.2459625E-1,-4.4221357E-1,8.820973E-1,4.0260088E-2,-6.818808E-1,-8.457893E-2,2.4721226E-2,1.575752E-2,1.0581174E-1,-3.0580795E-1,5.055575E-1,2.0972546E-2,-9.9336666E-1,-4.9300617E-1,7.578897E-2,-6.333836E-2,7.4419016E-1,-1.0806817E-1,-3.1347908E-2,1.9104148E-1,-7.0353436E-1,9.1994745E-1,-3.7082836E-2,-4.6914376E-2,6.589497E-2,-9.0437084E-2,2.8264523E-2,3.285631E-2,1.1729065E-1],"categories":[],"categories_nodes":[],"categories_segments":[],"categories_sizes":[],"default_left":[0,0,0,0,0,0,0,0,0,0,0,0,0,0,0,0,0,0,0,0,0,0,0,0,0,0,0,0,0,0,0],"id":19,"left_children":[1,3,5,7,9,11,13,-1,-1,-1,-1,15,17,-1,19,21,-1,-1,23,-1,-1,25,27,29,-1,-1,-1,-1,-1,-1,-1],"loss_changes":[2.9392056E0,4.2275267E0,3.1515288E0,1.2657583E0,8.019757E-1,4.532229E0,2.3797445E0,0E0,0E0,0E0,0E0,3.6021366E0,3.7253346E0,0E0,1.5556335E-2,2.207174E0,0E0,0E0,2.3710842E0,0E0,0E0,1.5984225E0,2.4777403E0,9.961686E-1,0E0,0E0,0E0,0E0,0E0,0E0,0E0],"parents":[2147483647,0,0,1,1,2,2,3,3,4,4,5,5,6,6,11,11,12,12,14,14,15,15,18,18,21,21,22,22,23,23],"right_children":[2,4,6,8,10,12,14,-1,-1,-1,-1,16,18,-1,20,22,-1,-1,24,-1,-1,26,28,30,-1,-1,-1,-1,-1,-1,-1],"split_conditions":[-2.2846342E1,3.0392852E-1,-6.428508E0,4.1982743E-1,3.674839E-1,-6.0288196E0,-2.2497543E1,-8.457893E-2,2.4721226E-2,1.575752E-2,1.0581174E-1,-5.0247746E0,3.3022185E3,2.0972546E-2,4.2264494E-1,-9.006621E0,7.578897E-2,-6.333836E-2,-1.221262E0,-1.0806817E-1,-3.1347908E-2,3.0188823E-1,-5.248154E1,1.5585159E1,-3.7082836E-2,-4.6914376E-2,6.589497E-2,-9.0437084E-2,2.8264523E-2,3.285631E-2,1.1729065E-1],"split_indices":[2,21,9,17,19,5,10,0,0,0,0,11,14,0,20,11,0,0,4,0,0,18,32,3,0,0,0,0,0,0,0],"split_type":[0,0,0,0,0,0,0,0,0,0,0,0,0,0,0,0,0,0,0,0,0,0,0,0,0,0,0,0,0,0,0],"sum_hessian":[4.2398357E1,9.393654E0,3.3004704E1,2.7977498E0,6.5959044E0,2.6186073E1,6.818628E0,1.6216606E0,1.1760893E0,1.6596745E0,4.9362297E0,1.5213615E1,1.0972459E1,1.8499553E0,4.9686728E0,1.3393104E1,1.8205116E0,1.6141683E0,9.358291E0,3.8807802E0,1.0878923E0,3.1736972E0,1.0219407E1,8.235154E0,1.123136E0,1.315284E0,1.8584132E0,8.55926E0,1.6601465E0,3.155919E0,5.079235E0],"tree_param":{"num_deleted":"0","num_feature":"39","num_nodes":"31","size_leaf_vector":"1"}},{"base_weights":[-4.1972682E-2,3.0068108E-1,-2.2991958E-1,9.2225E-1,-1.12458214E-1,-5.177463E-1,1.0057546E-1,1.0243247E-1,2.1149809E-2,-7.857184E-1,2.721275E-1,-7.241784E-1,2.2238806E-1,4.678619E-1,-5.102609E-1,-9.779756E-2,-1.1121204E-2,-3.182818E-1,6.4524513E-1,-9.0739816E-1,4.706614E-2,7.1608834E-2,-5.0832707E-2,3.5189107E-2,1.05807856E-1,-7.835121E-1,2.1258926E-2,-8.3449185E-2,4.2082917E-2,1.9138647E-3,9.471638E-2,-1.078789E0,-1.2826149E-1,-6.294955E-1,8.087787E-2,-8.9975394E-2,-2.0560138E-2,-2.4520906E-2,-1.1562455E-1,-6.762417E-2,5.150472E-2,6.5740496E-3,-9.191259E-2],"categories":[],"categories_nodes":[],"categories_segments":[],"categories_sizes":[],"default_left":[0,0,0,0,0,0,0,0,0,0,0,0,0,0,0,0,0,0,0,0,0,0,0,0,0,0,0,0,0,0,0,0,0,0,0,0,0,0,0,0,0,0,0],"id":20,"left_children":[1,3,5,7,9,11,13,-1,-1,15,17,19,21,23,25,-1,-1,27,29,31,-1,-1,-1,33,-1,35,-1,-1,-1,-1,-1,37,39,41,-1,-1,-1,-1,-1,-1,-1,-1,-1],"loss_changes":[2.8600461E0,4.1569185E0,2.768171E0,2.4846458E-1,2.899649E0,2.5176806E0,3.4085088E0,0E0,0E0,4.136343E-1,1.8233211E0,3.1187649E0,1.8535101E0,2.349197E0,1.3089479E0,0E0,0E0,1.6918186E0,8.9505005E-1,1.3308325E0,0E0,0E0,0E0,3.8136008E0,0E0,1.1129403E-1,0E0,0E0,0E0,0E0,0E0,2.900467E-1,1.447722E0,8.696747E-1,0E0,0E0,0E0,0E0,0E0,0E0,0E0,0E0,0E0],"parents":[2147483647,0,0,1,1,2,2,3,3,4,4,5,5,6,6,9,9,10,10,11,11,12,12,13,13,14,14,17,17,18,18,19,19,23,23,25,25,31,31,32,32,33,33],"right_children":[2,4,6,8,10,12,14,-1,-1,16,18,20,22,24,26,-1,-1,28,30,32,-1,-1,-1,34,-1,36,-1,-1,-1,-1,-1,38,40,42,-1,-1,-1,-1,-1,-1,-1,-1,-1],"split_conditions":[-1.9539005E1,1.9673018E1,-6.2348323E0,-3.151392E2,3.3816656E-1,4.1893592E-1,-5.2654472E1,1.0243247E-1,2.1149809E-2,3.3248678E-1,-2.4537844E1,-5.0247746E0,-1.7147495E1,1.6132402E1,-9.644025E0,-9.779756E-2,-1.1121204E-2,4.2985022E-1,3.8455182E-1,-3.177313E2,4.706614E-2,7.1608834E-2,-5.0832707E-2,3.2063934E-1,1.05807856E-1,3.5584976E3,2.1258926E-2,-8.3449185E-2,4.2082917E-2,1.9138647E-3,9.471638E-2,-4.494739E1,1.505372E1,3.1496722E-1,8.087787E-2,-8.9975394E-2,-2.0560138E-2,-2.4520906E-2,-1.1562455E-1,-6.762417E-2,5.150472E-2,6.5740496E-3,-9.191259E-2],"split_indices":[2,3,5,0,28,22,32,0,0,27,8,11,6,3,6,0,0,18,18,0,0,0,0,25,0,14,0,0,0,0,0,36,3,17,0,0,0,0,0,0,0,0,0],"split_type":[0,0,0,0,0,0,0,0,0,0,0,0,0,0,0,0,0,0,0,0,0,0,0,0,0,0,0,0,0,0,0,0,0,0,0,0,0,0,0,0,0,0,0],"sum_hessian":[4.2336685E1,1.4783839E1,2.7552847E1,5.4108725E0,9.372967E0,1.4424251E1,1.3128596E1,4.3455954E0,1.0652776E0,3.0283961E0,6.34457E0,1.1295393E1,3.128858E0,8.344963E0,4.7836337E0,2.006549E0,1.0218475E0,2.5137925E0,3.8307776E0,1.0002199E1,1.2931938E0,1.8792077E0,1.2496502E0,5.4265313E0,2.9184315E0,3.4104843E0,1.3731492E0,1.4040956E0,1.109697E0,1.5922418E0,2.238536E0,7.8834414E0,2.1187575E0,3.0188973E0,2.4076338E0,2.3757205E0,1.0347639E0,1.0244259E0,6.859016E0,1.1165069E0,1.0022506E0,1.1151301E0,1.9037672E0],"tree_param":{"num_deleted":"0","num_feature":"39","num_nodes":"43","size_leaf_vector":"1"}},{"base_weights":[-1.1049094E-1,-6.736804E-1,1.7191952E-2,-9.1781783E-1,4.0701803E-2,-8.485297E-2,1.23591565E-1,-2.4349762E-2,-1.0169249E-1,2.5867224E-1,-7.411811E-1,-4.8897973E-1,4.4112045E-1,-8.766335E-2,-1.5200867E-2,-7.38034E-1,2.820529E-2,6.539865E-2,8.673346E-1,-9.3528144E-2,-3.4561723E-3,4.3984447E-2,-7.06826E-2,1.0125711E-1,-3.1926248E-3],"categories":[],"categories_nodes":[],"categories_segments":[],"categories_sizes":[],"default_left":[0,0,0,0,0,0,0,0,0,0,0,0,0,0,0,0,0,0,0,0,0,0,0,0,0],"id":21,"left_children":[1,3,5,7,-1,-1,9,-1,-1,11,13,15,17,-1,-1,19,-1,21,23,-1,-1,-1,-1,-1,-1],"loss_changes":[2.8787637E0,2.3243375E0,3.1886308E0,1.7598248E-1,0E0,0E0,3.7763784E0,0E0,0E0,3.937221E0,2.1824598E-1,1.3269192E0,3.5393934E0,0E0,0E0,6.170709E-1,0E0,4.074752E0,1.3958063E0,0E0,0E0,0E0,0E0,0E0,0E0],"parents":[2147483647,0,0,1,1,2,2,3,3,6,6,9,9,10,10,11,11,12,12,15,15,17,17,18,18],"right_children":[2,4,6,8,-1,-1,10,-1,-1,12,14,16,18,-1,-1,20,-1,22,24,-1,-1,-1,-1,-1,-1],"split_conditions":[2.937179E-1,-3.7401283E1,2.7360532E-1,-1.8037172E1,4.0701803E-2,-8.485297E-2,-6.3761234E-1,-2.4349762E-2,-1.0169249E-1,-2.40448E1,3.4678987E-1,-3.7660683E1,-6.2348323E0,-8.766335E-2,-1.5200867E-2,3.2931688E-1,2.820529E-2,-1.4088805E1,4.052361E-1,-9.3528144E-2,-3.4561723E-3,4.3984447E-2,-7.06826E-2,1.0125711E-1,-3.1926248E-3],"split_indices":[25,35,22,2,0,0,4,0,0,8,22,34,5,0,0,22,0,2,28,0,0,0,0,0,0],"split_type":[0,0,0,0,0,0,0,0,0,0,0,0,0,0,0,0,0,0,0,0,0,0,0,0,0],"sum_hessian":[3.8871994E1,6.3937874E0,3.2478207E1,5.3385005E0,1.055287E0,2.7913582E0,2.968685E1,1.1270455E0,4.211455E0,2.6282331E1,3.4045181E0,4.825968E0,2.1456364E1,2.371416E0,1.033102E0,3.680056E0,1.1459115E0,1.2016693E1,9.439671E0,2.6168056E0,1.0632505E0,8.382502E0,3.634192E0,8.018609E0,1.421061E0],"tree_param":{"num_deleted":"0","num_feature":"39","num_nodes":"25","size_leaf_vector":"1"}},{"base_weights":[-3.887696E-2,-8.950645E-2,5.545521E-2,6.582127E-1,-6.0197026E-2,-3.922284E-2,9.6636534E-2,-1.4070292E-1,7.436921E-2,-4.1389E-1,1.3284469E-1,-7.627709E-1,-2.0940261E-2,7.057608E-1,-1.5519838E-1,1.4709703E-3,-8.818004E-2,-8.473353E-2,2.5675511E-2,-4.030541E-3,8.862772E-2,-4.2506065E-2,3.0875701E-2],"categories":[],"categories_nodes":[],"categories_segments":[],"categories_sizes":[],"default_left":[0,0,0,0,0,0,0,0,0,0,0,0,0,0,0,0,0,0,0,0,0,0,0],"id":22,"left_children":[1,-1,3,5,7,-1,-1,9,-1,11,13,15,17,19,21,-1,-1,-1,-1,-1,-1,-1,-1],"loss_changes":[3.265617E0,0E0,2.6055489E0,2.32424E0,2.1626074E0,0E0,0E0,2.2778435E0,0E0,2.0576167E0,2.6871974E0,7.5181484E-1,2.0859623E0,7.6379514E-1,1.5352572E0,0E0,0E0,0E0,0E0,0E0,0E0,0E0,0E0],"parents":[2147483647,0,0,2,2,3,3,4,4,7,7,9,9,10,10,11,11,12,12,13,13,14,14],"right_children":[2,-1,4,6,8,-1,-1,10,-1,12,14,16,18,20,22,-1,-1,-1,-1,-1,-1,-1,-1],"split_conditions":[-3.6525076E2,-8.950645E-2,-7.197697E1,1.4136174E-1,-3.765585E1,-3.922284E-2,9.6636534E-2,-1.6068762E1,7.436921E-2,3.4833902E-1,-1.3237048E1,-7.0991264E1,-4.22488E1,1.4080402E1,3.248071E-1,1.4709703E-3,-8.818004E-2,-8.473353E-2,2.5675511E-2,-4.030541E-3,8.862772E-2,-4.2506065E-2,3.0875701E-2],"split_indices":[0,0,29,15,37,0,0,10,0,28,12,29,38,3,24,0,0,0,0,0,0,0,0],"split_type":[0,0,0,0,0,0,0,0,0,0,0,0,0,0,0,0,0,0,0,0,0,0,0],"sum_hessian":[3.8818485E1,3.0100372E0,3.580845E1,5.0093513E0,3.0799099E1,1.0743232E0,3.935028E0,2.8745352E1,2.0537465E0,1.4125462E1,1.461989E1,6.9837713E0,7.1416903E0,4.406063E0,1.0213827E1,1.0435967E0,5.9401746E0,1.2803067E0,5.8613834E0,1.0097077E0,3.3963554E0,6.510684E0,3.7031434E0],"tree_param":{"num_deleted":"0","num_feature":"39","num_nodes":"23","size_leaf_vector":"1"}},{"base_weights":[3.291896E-2,-8.616939E-2,1.377509E-1,2.575305E-1,-5.0330603E-1,3.3774987E-1,-5.846215E-1,2.5500128E-2,-9.102789E-2,-6.635219E-2,4.2026204E-1,-1.781473E-2,-7.0210755E-2,-2.1381532E-1,5.665203E-1,-6.4288646E-2,3.063156E-2,6.667302E-2,-1.02864625E-2],"categories":[],"categories_nodes":[],"categories_segments":[],"categories_sizes":[],"default_left":[0,0,0,0,0,0,0,0,0,0,0,0,0,0,0,0,0,0,0],"id":23,"left_children":[1,-1,3,5,7,9,11,-1,-1,-1,13,-1,-1,15,17,-1,-1,-1,-1],"loss_changes":[3.8843627E0,0E0,2.9555616E0,2.337025E0,2.12466E0,2.7201922E0,2.394569E-2,0E0,0E0,0E0,2.709711E0,0E0,0E0,1.5265111E0,1.6083732E0,0E0,0E0,0E0,0E0],"parents":[2147483647,0,0,2,2,3,3,4,4,5,5,6,6,10,10,13,13,14,14],"right_children":[2,-1,4,6,8,10,12,-1,-1,-1,14,-1,-1,16,18,-1,-1,-1,-1],"split_conditions":[2.99896E-1,-8.616939E-2,-1.0404158E0,-4.654979E0,-1.866429E1,-3.6538074E2,-2.3228777E1,2.5500128E-2,-9.102789E-2,-6.635219E-2,2.6607403E-1,-1.781473E-2,-7.0210755E-2,-8.826019E0,-1.0807551E1,-6.4288646E-2,3.063156E-2,6.667302E-2,-1.02864625E-2],"split_indices":[27,0,4,7,2,0,2,0,0,0,23,0,0,6,2,0,0,0,0],"split_type":[0,0,0,0,0,0,0,0,0,0,0,0,0,0,0,0,0,0,0],"sum_hessian":[3.915251E1,3.3494315E0,3.580308E1,3.0670635E1,5.1324472E0,2.855004E1,2.1205947E0,1.9229182E0,3.209529E0,1.6375185E0,2.6912521E1,1.0397234E0,1.0808712E0,4.9576373E0,2.1954884E1,2.587294E0,2.3703432E0,1.9099562E1,2.855323E0],"tree_param":{"num_deleted":"0","num_feature":"39","num_nodes":"19","size_leaf_vector":"1"}},{"base_weights":[1.6995395E-2,1.256903E-1,-5.9256035E-1,3.2319698E-1,-2.7314004E-1,1.781947E-2,-9.292866E-2,-4.5660776E-1,4.9515852E-1,-6.0255206E-1,4.591787E-1,-7.383727E-2,2.2822829E-2,-2.6737234E-1,6.588373E-1,3.244559E-2,-7.829033E-1,-1.6843839E-2,8.0978684E-2,3.1693418E-2,-6.875186E-2,-1.4571929E-2,7.7404785E-1,-9.896842E-2,-1.9051746E-1,2.6194563E-2,1.0049428E-1,2.7606014E-2,-5.4927345E-2],"categories":[],"categories_nodes":[],"categories_segments":[],"categories_sizes":[],"default_left":[0,0,0,0,0,0,0,0,0,0,0,0,0,0,0,0,0,0,0,0,0,0,0,0,0,0,0,0,0],"id":24,"left_children":[1,3,5,7,9,-1,-1,11,13,15,17,-1,-1,19,21,-1,23,-1,-1,-1,-1,-1,25,-1,27,-1,-1,-1,-1],"loss_changes":[2.7161012E0,2.818623E0,1.7769494E0,3.396087E0,3.1767664E0,0E0,0E0,1.093075E0,2.6534214E0,1.7126312E0,1.0820351E0,0E0,0E0,1.2536117E0,1.6542277E0,0E0,7.419772E-1,0E0,0E0,0E0,0E0,0E0,1.4754839E0,0E0,6.879357E-1,0E0,0E0,0E0,0E0],"parents":[2147483647,0,0,1,1,2,2,3,3,4,4,7,7,8,8,9,9,10,10,13,13,14,14,16,16,22,22,24,24],"right_children":[2,4,6,8,10,-1,-1,12,14,16,18,-1,-1,20,22,-1,24,-1,-1,-1,-1,-1,26,-1,28,-1,-1,-1,-1],"split_conditions":[-1.0404158E0,-6.4755793E0,-1.866429E1,3.0938154E-1,4.3276274E-1,1.781947E-2,-9.292866E-2,-6.6236453E0,1.3871294E-1,3.1052207E3,3.0392852E-1,-7.383727E-2,2.2822829E-2,3.2286643E3,-2.0577606E1,3.244559E-2,-6.51878E0,-1.6843839E-2,8.0978684E-2,3.1693418E-2,-6.875186E-2,-1.4571929E-2,-4.388284E1,-9.896842E-2,-6.995523E1,2.6194563E-2,1.0049428E-1,2.7606014E-2,-5.4927345E-2],"split_indices":[4,9,2,27,18,0,0,5,15,14,21,0,0,14,6,0,4,0,0,0,0,0,38,0,29,0,0,0,0],"split_type":[0,0,0,0,0,0,0,0,0,0,0,0,0,0,0,0,0,0,0,0,0,0,0,0,0,0,0,0,0],"sum_hessian":[3.8870174E1,3.3661514E1,5.2086616E0,2.2639658E1,1.1021855E1,1.7268236E0,3.481838E0,3.791377E0,1.8848282E1,7.7244425E0,3.297413E0,2.630801E0,1.160576E0,3.218893E0,1.5629389E1,1.127916E0,6.5965266E0,1.3680592E0,1.9293541E0,1.449165E0,1.7697282E0,1.9245759E0,1.3704813E1,4.392564E0,2.2039626E0,4.922242E0,8.78257E0,1.0582153E0,1.1457474E0],"tree_param":{"num_deleted":"0","num_feature":"39","num_nodes":"29","size_leaf_vector":"1"}},{"base_weights":[-1.1901337E-1,-1.8849012E-1,6.292686E-1,-8.556678E-2,-1.0240906E-1,1.7084273E-2,7.5863875E-2,1.4855413E-1,-3.515514E-1,-1.9039397E-1,5.7871497E-1,-7.4086213E-1,5.5832514E-3,-4.069985E-1,5.2906733E-2,-5.2670866E-2,9.218331E-2,-2.3461722E-3,-9.332629E-1,-7.164058E-2,2.7966374E-1,1.2063797E-2,-8.6774655E-2,-1.9679405E-2,-1.0398163E-1,-4.9350895E-2,5.168695E-2],"categories":[],"categories_nodes":[],"categories_segments":[],"categories_sizes":[],"default_left":[0,0,0,0,0,0,0,0,0,0,0,0,0,0,0,0,0,0,0,0,0,0,0,0,0,0,0],"id":25,"left_children":[1,3,5,-1,7,-1,-1,9,11,13,15,17,19,21,-1,-1,-1,-1,23,-1,25,-1,-1,-1,-1,-1,-1],"loss_changes":[2.073751E0,1.9329082E0,7.35538E-2,0E0,2.0716255E0,0E0,0E0,2.5586052E0,2.2988544E0,1.7962496E0,3.3864148E0,1.069078E0,2.1001217E0,2.137634E0,0E0,0E0,0E0,0E0,2.8243017E-1,0E0,1.663235E0,0E0,0E0,0E0,0E0,0E0,0E0],"parents":[2147483647,0,0,1,1,2,2,4,4,7,7,8,8,9,9,10,10,11,11,12,12,13,13,18,18,20,20],"right_children":[2,4,6,-1,8,-1,-1,10,12,14,16,18,20,22,-1,-1,-1,-1,24,-1,26,-1,-1,-1,-1,-1,-1],"split_conditions":[-3.765585E1,3.0181634E-1,1.8427963E1,-8.556678E-2,-1.8905365E1,1.7084273E-2,7.5863875E-2,3.212076E-1,3.526864E-1,1.9592706E3,2.6318234E-1,-3.539836E2,3.0953044E-1,3.3923464E3,5.2906733E-2,-5.2670866E-2,9.218331E-2,-2.3461722E-3,-5.168015E1,-7.164058E-2,3.0689743E-1,1.2063797E-2,-8.6774655E-2,-1.9679405E-2,-1.0398163E-1,-4.9350895E-2,5.168695E-2],"split_indices":[37,27,3,0,7,0,0,25,17,13,23,0,23,14,0,0,0,0,33,0,20,0,0,0,0,0,0],"split_type":[0,0,0,0,0,0,0,0,0,0,0,0,0,0,0,0,0,0,0,0,0,0,0,0,0,0,0],"sum_hessian":[3.6607376E1,3.418176E1,2.4256175E0,2.884554E0,3.1297205E1,1.0446062E0,1.3810112E0,1.5792761E1,1.5504443E1,9.144601E0,6.6481605E0,6.9039836E0,8.60046E0,7.362355E0,1.7822454E0,1.4480171E0,5.2001433E0,1.6972873E0,5.206696E0,1.922449E0,6.678011E0,3.776163E0,3.5861924E0,1.0179311E0,4.188765E0,1.3141211E0,5.3638897E0],"tree_param":{"num_deleted":"0","num_feature":"39","num_nodes":"27","size_leaf_vector":"1"}},{"base_weights":[-9.031133E-2,2.1456662E-1,-2.8388935E-1,-6.621209E-2,4.3664935E-1,-4.372091E-1,5.3852576E-1,5.7011086E-1,-4.1912403E-2,3.9370667E-2,-5.108608E-1,7.628965E-2,4.8503964E-3,9.310373E-2,1.3167545E-1,-1.3826796E-1,-7.7886665E-1,4.551523E-1,-6.411788E-2,-8.138256E-2,2.1946232E-1,-9.5080495E-1,-2.1388061E-1,6.9227695E-2,-1.0584119E-2,-4.267824E-2,5.7140846E-2,-1.0351273E-1,-2.8385654E-2,-7.100224E-2,4.0990755E-2],"categories":[],"categories_nodes":[],"categories_segments":[],"categories_sizes":[],"default_left":[0,0,0,0,0,0,0,0,0,0,0,0,0,0,0,0,0,0,0,0,0,0,0,0,0,0,0,0,0,0,0],"id":26,"left_children":[1,3,5,-1,7,9,11,13,-1,-1,15,-1,-1,-1,17,19,21,23,-1,-1,25,27,29,-1,-1,-1,-1,-1,-1,-1,-1],"loss_changes":[2.1566215E0,3.0849602E0,3.0283794E0,0E0,1.6163704E0,1.3774433E0,3.9492667E-1,1.5954096E0,0E0,0E0,1.698874E0,0E0,0E0,0E0,1.8085234E0,2.301592E0,7.978687E-1,7.199832E-1,0E0,0E0,1.7293057E0,1.3424873E-1,1.4345984E0,0E0,0E0,0E0,0E0,0E0,0E0,0E0,0E0],"parents":[2147483647,0,0,1,1,2,2,4,4,5,5,6,6,7,7,10,10,14,14,15,15,16,16,17,17,20,20,21,21,22,22],"right_children":[2,4,6,-1,8,10,12,14,-1,-1,16,-1,-1,-1,18,20,22,24,-1,-1,26,28,30,-1,-1,-1,-1,-1,-1,-1,-1],"split_conditions":[-4.1943382E1,-3.6538074E2,-3.6703606E1,-6.621209E-2,-5.1485353E0,-2.4054441E1,-1.6356255E1,-1.5635694E1,-4.1912403E-2,3.9370667E-2,-3.3062546E2,7.628965E-2,4.8503964E-3,9.310373E-2,-8.554265E0,-4.302011E1,-9.644025E0,-9.75689E0,-6.411788E-2,-8.138256E-2,3.2446635E-1,-1.4782969E1,-7.2864094E0,6.9227695E-2,-1.0584119E-2,-4.267824E-2,5.7140846E-2,-1.0351273E-1,-2.8385654E-2,-7.100224E-2,4.0990755E-2],"split_indices":[35,0,35,0,7,7,10,2,0,0,0,0,0,0,9,37,6,8,0,0,27,10,5,0,0,0,0,0,0,0,0],"split_type":[0,0,0,0,0,0,0,0,0,0,0,0,0,0,0,0,0,0,0,0,0,0,0,0,0,0,0,0,0,0,0],"sum_hessian":[3.450984E1,1.3359973E1,2.1149866E1,2.2998266E0,1.1060146E1,1.822132E1,2.9285479E0,9.8567505E0,1.2033961E0,1.1297958E0,1.7091522E1,1.6268054E0,1.3017424E0,4.7900043E0,5.0667458E0,7.7847514E0,9.306771E0,3.8615687E0,1.2051771E0,2.2537246E0,5.5310273E0,6.6117744E0,2.6949973E0,2.5497873E0,1.3117814E0,1.8751799E0,3.6558473E0,5.3795967E0,1.2321776E0,1.424083E0,1.2709142E0],"tree_param":{"num_deleted":"0","num_feature":"39","num_nodes":"31","size_leaf_vector":"1"}},{"base_weights":[-1.0257605E-2,8.884986E-2,-6.346811E-1,4.9153823E-1,-4.7159627E-2,-8.848901E-2,1.8452985E-2,4.5734026E-2,8.491063E-2,-3.3351827E-1,1.8957354E-1,-4.1010875E-1,5.9486207E-2,-5.7632303E-1,2.1385431E-1,3.1123525E-1,-5.0425656E-2,7.5362474E-3,-6.886841E-2,-8.454736E-1,1.20519914E-1,-2.1295866E-2,6.52386E-2,4.863079E-1,-3.111611E-1,-9.169075E-2,-2.5050486E-2,-4.5839593E-2,5.828345E-2,-1.1206969E-3,7.9832956E-2,2.9505953E-2,-6.969626E-2],"categories":[],"categories_nodes":[],"categories_segments":[],"categories_sizes":[],"default_left":[0,0,0,0,0,0,0,0,0,0,0,0,0,0,0,0,0,0,0,0,0,0,0,0,0,0,0,0,0,0,0,0,0],"id":27,"left_children":[1,3,5,7,9,-1,-1,11,-1,13,15,17,-1,19,21,23,-1,-1,-1,25,27,-1,-1,29,31,-1,-1,-1,-1,-1,-1,-1,-1],"loss_changes":[2.3540218E0,1.8261349E0,1.2308786E0,1.2999918E0,1.7932498E0,0E0,0E0,1.4442561E0,0E0,1.7063993E0,1.3900568E0,4.862978E-1,0E0,1.7002993E0,9.605448E-1,1.5729992E0,0E0,0E0,0E0,3.6898136E-2,1.1369399E0,0E0,0E0,1.6502566E0,1.0181775E0,0E0,0E0,0E0,0E0,0E0,0E0,0E0,0E0],"parents":[2147483647,0,0,1,1,2,2,3,3,4,4,7,7,9,9,10,10,11,11,13,13,14,14,15,15,19,19,20,20,23,23,24,24],"right_children":[2,4,6,8,10,-1,-1,12,-1,14,16,18,-1,20,22,24,-1,-1,-1,26,28,-1,-1,30,32,-1,-1,-1,-1,-1,-1,-1,-1],"split_conditions":[-1.1829404E0,-8.566195E0,3.1894672E-1,3.237912E-1,3.8390213E-1,-8.848901E-2,1.8452985E-2,3.1187144E-1,8.491063E-2,3.9229208E-1,-4.862439E0,2.9416257E-1,5.9486207E-2,-4.2345314E0,1.7360397E3,-1.1419222E1,-5.0425656E-2,7.5362474E-3,-6.886841E-2,-1.2592975E1,3.2219133E-1,-2.1295866E-2,6.52386E-2,-6.0278316E0,4.9070515E1,-9.169075E-2,-2.5050486E-2,-4.5839593E-2,5.828345E-2,-1.1206969E-3,7.9832956E-2,2.9505953E-2,-6.969626E-2],"split_indices":[4,11,23,17,19,0,0,26,0,28,7,26,0,4,13,2,0,0,0,10,25,0,0,4,1,0,0,0,0,0,0,0,0],"split_type":[0,0,0,0,0,0,0,0,0,0,0,0,0,0,0,0,0,0,0,0,0,0,0,0,0,0,0,0,0,0,0,0,0],"sum_hessian":[3.6127403E1,3.1918985E1,4.2084193E0,7.398871E0,2.4520113E1,3.1623726E0,1.0460469E0,3.79513E0,3.603741E0,1.0911925E1,1.3608188E1,2.212036E0,1.5830941E0,7.5222845E0,3.3896413E0,1.2047166E1,1.5610218E0,1.072489E0,1.1395469E0,5.27252E0,2.2497644E0,1.9784466E0,1.4111947E0,9.573037E0,2.4741287E0,4.2242417E0,1.0482783E0,1.0026767E0,1.2470878E0,4.0613484E0,5.511689E0,1.0536704E0,1.4204582E0],"tree_param":{"num_deleted":"0","num_feature":"39","num_nodes":"33","size_leaf_vector":"1"}},{"base_weights":[3.5990056E-2,1.398493E-1,-4.3819568E-1,4.6476665E-1,-1.2060892E-1,1.1021742E-2,-6.451457E-1,6.0839814E-1,-3.5744768E-2,-3.0586863E-1,4.3549493E-1,3.7312566E-4,-8.536713E-2,-1.7899857E-1,8.17421E-1,-5.243781E-1,2.4596722E-1,6.757854E-1,-1.9675618E-2,3.6255162E-2,-6.5773316E-2,9.151323E-1,7.661696E-3,-7.0014733E-1,6.0003646E-2,6.967538E-2,-1.7257665E-1,1.9861495E-2,7.911228E-2,9.983201E-2,1.7023576E-2,-2.6146108E-2,-8.946311E-2,-4.5545533E-2,5.2215617E-2,-4.8586514E-2,2.3170834E-2],"categories":[],"categories_nodes":[],"categories_segments":[],"categories_sizes":[],"default_left":[0,0,0,0,0,0,0,0,0,0,0,0,0,0,0,0,0,0,0,0,0,0,0,0,0,0,0,0,0,0,0,0,0,0,0,0,0],"id":28,"left_children":[1,3,5,7,9,-1,11,13,-1,15,17,-1,-1,19,21,23,25,27,-1,-1,-1,29,-1,31,33,-1,35,-1,-1,-1,-1,-1,-1,-1,-1,-1,-1],"loss_changes":[1.7697788E0,2.528552E0,8.05985E-1,1.7769957E0,1.8857068E0,0E0,6.5901446E-1,2.0574431E0,0E0,1.7384157E0,8.4144443E-1,0E0,0E0,1.082667E0,6.070919E-1,1.0569122E0,9.629907E-1,4.1253924E-2,0E0,0E0,0E0,3.3656693E-1,0E0,4.208877E-1,1.0014954E0,0E0,5.0745493E-1,0E0,0E0,0E0,0E0,0E0,0E0,0E0,0E0,0E0,0E0],"parents":[2147483647,0,0,1,1,2,2,3,3,4,4,6,6,7,7,9,9,10,10,13,13,14,14,15,15,16,16,17,17,21,21,23,23,24,24,26,26],"right_children":[2,4,6,8,10,-1,12,14,-1,16,18,-1,-1,20,22,24,26,28,-1,-1,-1,30,-1,32,34,-1,36,-1,-1,-1,-1,-1,-1,-1,-1,-1,-1],"split_conditions":[-1.1419222E1,-4.168686E1,-4.5759132E1,1.875E2,-3.6977623E1,1.1021742E-2,9.868421E1,2.9337856E-1,-3.5744768E-2,-1.6068762E1,-1.3996788E1,3.7312566E-4,-8.536713E-2,2.9765433E-1,2.1115797E1,2.8023602E1,-2.1215914E1,-1.2948599E1,-1.9675618E-2,3.6255162E-2,-6.5773316E-2,4.3060303E-1,7.661696E-3,1.396773E-1,3.0448365E-1,6.967538E-2,3.8948753E-1,1.9861495E-2,7.911228E-2,9.983201E-2,1.7023576E-2,-2.6146108E-2,-8.946311E-2,-4.5545533E-2,5.2215617E-2,-4.8586514E-2,2.3170834E-2],"split_indices":[2,34,37,16,34,0,16,25,0,10,12,0,0,24,3,3,2,6,0,0,0,21,0,15,22,0,20,0,0,0,0,0,0,0,0,0,0],"split_type":[0,0,0,0,0,0,0,0,0,0,0,0,0,0,0,0,0,0,0,0,0,0,0,0,0,0,0,0,0,0,0,0,0,0,0,0,0],"sum_hessian":[3.3691307E1,2.821627E1,5.4750366E0,1.2205585E1,1.6010685E1,1.6280801E0,3.8469563E0,1.0611862E1,1.5937223E0,1.23473015E1,3.6633842E0,1.1744576E0,2.6724987E0,2.2562246E0,8.355638E0,8.880616E0,3.4666855E0,2.604626E0,1.0587584E0,1.1725311E0,1.0836935E0,7.1740637E0,1.1815743E0,6.674864E0,2.2057521E0,1.3490268E0,2.1176586E0,1.0368855E0,1.5677403E0,6.1473346E0,1.0267287E0,2.7703419E0,3.9045222E0,1.04959E0,1.1561623E0,1.0794121E0,1.0382466E0],"tree_param":{"num_deleted":"0","num_feature":"39","num_nodes":"37","size_leaf_vector":"1"}},{"base_weights":[3.1110154E-2,-4.9474037E-1,1.1467315E-1,-7.9036534E-2,1.2570183E-2,4.9340582E-1,-5.502174E-2,-2.6626507E-2,6.551081E-1,1.4191845E-1,-5.907375E-1,-3.3678585E-3,7.845548E-1,-3.7148356E-2,6.4908737E-1,-8.161787E-1,3.8766456E-3,8.59448E-2,1.8487878E-2,4.2830738E-1,-5.155572E-1,3.461317E-3,8.608855E-2,-2.0281268E-2,-9.439486E-2,7.6105535E-2,-1.9067397E-2,-7.021093E-2,2.3799777E-2],"categories":[],"categories_nodes":[],"categories_segments":[],"categories_sizes":[],"default_left":[0,0,0,0,0,0,0,0,0,0,0,0,0,0,0,0,0,0,0,0,0,0,0,0,0,0,0,0,0],"id":29,"left_children":[1,3,5,-1,-1,7,9,-1,11,13,15,-1,17,19,21,23,-1,-1,-1,25,27,-1,-1,-1,-1,-1,-1,-1,-1],"loss_changes":[1.5793002E0,1.005318E0,2.0008738E0,0E0,0E0,1.3540404E0,2.416279E0,0E0,7.581191E-1,1.5653993E0,9.024806E-1,0E0,1.5321207E-1,3.224452E0,5.535934E-1,1.662004E-1,0E0,0E0,0E0,1.6657754E0,1.1659819E0,0E0,0E0,0E0,0E0,0E0,0E0,0E0,0E0],"parents":[2147483647,0,0,1,1,2,2,5,5,6,6,8,8,9,9,10,10,12,12,13,13,14,14,15,15,19,19,20,20],"right_children":[2,4,6,-1,-1,8,10,-1,12,14,16,-1,18,20,22,24,-1,-1,-1,26,28,-1,-1,-1,-1,-1,-1,-1,-1],"split_conditions":[-3.61617E2,1.6095525E-1,-4.2179283E1,-7.9036534E-2,1.2570183E-2,1.4304642E-1,3.570841E3,-2.6626507E-2,-3.5344403E2,-3.7836845E1,3.414136E-1,-3.3678585E-3,-6.662502E1,-4.1542225E1,-3.805347E1,-1.5870895E1,3.8766456E-3,8.59448E-2,1.8487878E-2,-1.7105085E1,-3.0391455E2,3.461317E-3,8.608855E-2,-2.0281268E-2,-9.439486E-2,7.6105535E-2,-1.9067397E-2,-7.021093E-2,2.3799777E-2],"split_indices":[0,15,35,0,0,15,14,0,0,38,25,0,30,37,35,9,0,0,0,2,0,0,0,0,0,0,0,0,0],"split_type":[0,0,0,0,0,0,0,0,0,0,0,0,0,0,0,0,0,0,0,0,0,0,0,0,0,0,0,0,0],"sum_hessian":[3.3649742E1,3.939355E0,2.9710388E1,2.4825897E0,1.4567653E0,8.602759E0,2.1107628E1,1.3963108E0,7.2064486E0,1.5971325E1,5.136303E0,1.2571217E0,5.949327E0,1.2488683E1,3.4826424E0,3.5635602E0,1.5727428E0,4.903717E0,1.0456098E0,6.3831167E0,6.105566E0,1.1909251E0,2.2917173E0,1.0603974E0,2.5031626E0,4.0021424E0,2.3809743E0,4.948718E0,1.156848E0],"tree_param":{"num_deleted":"0","num_feature":"39","num_nodes":"29","size_leaf_vector":"1"}},{"base_weights":[-1.2968283E-2,2.5152326E-1,-2.3845005E-1,-3.0768177E-1,6.4100325E-1,-5.450316E-1,2.8549948E-1,3.461162E-2,-4.7587487E-1,-7.0738406E-3,8.1347317E-1,-7.6363254E-1,1.3227527E-1,-2.5182503E-1,5.475136E-1,-6.779912E-1,1.701813E-2,-1.9866565E-2,1.8911105E-2,9.258926E-2,1.9909123E-2,-9.237323E-1,8.588323E-3,-3.664572E-2,6.257208E-2,2.2533778E-2,-6.214282E-2,-1.1988231E-2,7.3385906E-1,-1.1397989E-2,-8.711256E-2,-1.0265499E0,-2.402208E-2,8.416368E-2,1.8945446E-2,-3.0456657E-2,-1.1024584E-1],"categories":[],"categories_nodes":[],"categories_segments":[],"categories_sizes":[],"default_left":[0,0,0,0,0,0,0,0,0,0,0,0,0,0,0,0,0,0,0,0,0,0,0,0,0,0,0,0,0,0,0,0,0,0,0,0,0],"id":30,"left_children":[1,3,5,7,9,11,13,-1,15,17,19,21,23,25,27,29,-1,-1,-1,-1,-1,31,-1,-1,-1,-1,-1,-1,33,-1,-1,35,-1,-1,-1,-1,-1],"loss_changes":[2.041095E0,3.6327474E0,3.1185288E0,9.5112497E-1,1.0812678E0,1.8747895E0,1.1888657E0,0E0,9.131259E-1,1.5085334E-1,3.4116173E-1,1.3312306E0,1.1584412E0,6.923824E-1,7.5124323E-1,4.294691E-1,0E0,0E0,0E0,0E0,0E0,3.036766E-1,0E0,0E0,0E0,0E0,0E0,0E0,9.3408585E-2,0E0,0E0,2.0498753E-2,0E0,0E0,0E0,0E0,0E0],"parents":[2147483647,0,0,1,1,2,2,3,3,4,4,5,5,6,6,8,8,9,9,10,10,11,11,12,12,13,13,14,14,15,15,21,21,28,28,31,31],"right_children":[2,4,6,8,10,12,14,-1,16,18,20,22,24,26,28,30,-1,-1,-1,-1,-1,32,-1,-1,-1,-1,-1,-1,34,-1,-1,36,-1,-1,-1,-1,-1],"split_conditions":[-1.7105085E1,3.1400344E-1,-5.5184755E0,-5.369152E1,3.5247976E-1,2.0209711E3,-7.67875E0,3.461162E-2,-5.541397E1,3.1975436E-1,3.7320545E-1,-3.978811E1,1.5863488E1,-8.554265E0,1.4116754E-1,-4.092464E1,1.701813E-2,-1.9866565E-2,1.8911105E-2,9.258926E-2,1.9909123E-2,1.9631737E3,8.588323E-3,-3.664572E-2,6.257208E-2,2.2533778E-2,-6.214282E-2,-1.1988231E-2,-2.2511911E0,-1.1397989E-2,-8.711256E-2,-4.4868767E1,-2.402208E-2,8.416368E-2,1.8945446E-2,-3.0456657E-2,-1.1024584E-1],"split_indices":[2,22,5,32,20,13,4,0,31,27,28,37,3,9,15,34,0,0,0,0,0,13,0,0,0,0,0,0,4,0,0,36,0,0,0,0,0],"split_type":[0,0,0,0,0,0,0,0,0,0,0,0,0,0,0,0,0,0,0,0,0,0,0,0,0,0,0,0,0,0,0,0,0,0,0,0,0],"sum_hessian":[3.2219063E1,1.4773806E1,1.744526E1,6.1515675E0,8.622237E0,1.0980146E1,6.4651127E0,1.0422596E0,5.1093082E0,2.013867E0,6.608371E0,8.204642E0,2.775504E0,2.1319375E0,4.333175E0,3.8541272E0,1.2551808E0,1.0124626E0,1.0014042E0,5.1576033E0,1.4507678E0,6.830082E0,1.3745604E0,1.5083466E0,1.2671576E0,1.1009371E0,1.0310003E0,1.0236479E0,3.3095272E0,1.3887402E0,2.465387E0,5.500751E0,1.329331E0,2.3068545E0,1.0026727E0,1.0001705E0,4.500581E0],"tree_param":{"num_deleted":"0","num_feature":"39","num_nodes":"37","size_leaf_vector":"1"}},{"base_weights":[-1.9438023E-2,-6.184241E-1,5.764708E-2,-1.6229053E-3,-8.439195E-2,-1.8122454E-1,2.7233553E-1,-6.687871E-1,6.389329E-2,4.2005917E-1,-3.428009E-1,-9.183427E-2,1.5227325E-2,-3.5060596E-1,3.6271536E-1,-3.1708E-1,5.962037E-1,1.9974522E-2,-6.9705114E-2,-8.2147546E-2,2.3877392E-2,-2.908277E-1,8.268955E-2,2.4594253E-2,-6.7801684E-2,-1.0665134E-2,7.504587E-1,2.9720573E-2,-6.419566E-2,-4.6469254E-4,8.4513836E-2],"categories":[],"categories_nodes":[],"categories_segments":[],"categories_sizes":[],"default_left":[0,0,0,0,0,0,0,0,0,0,0,0,0,0,0,0,0,0,0,0,0,0,0,0,0,0,0,0,0,0,0],"id":31,"left_children":[1,3,5,-1,-1,7,9,11,13,15,17,-1,-1,19,21,23,25,-1,-1,-1,-1,27,-1,-1,-1,-1,29,-1,-1,-1,-1],"loss_changes":[1.552859E0,5.066403E-1,1.58925E0,0E0,0E0,1.8131138E0,1.6173463E0,1.1731713E0,1.4612262E0,1.9449677E0,8.4850657E-1,0E0,0E0,1.5894263E0,2.2882051E0,8.294536E-1,1.3010912E0,0E0,0E0,0E0,0E0,9.2234766E-1,0E0,0E0,0E0,0E0,6.730952E-1,0E0,0E0,0E0,0E0],"parents":[2147483647,0,0,1,1,2,2,5,5,6,6,7,7,8,8,9,9,10,10,13,13,14,14,15,15,16,16,21,21,26,26],"right_children":[2,4,6,-1,-1,8,10,12,14,16,18,-1,-1,20,22,24,26,-1,-1,-1,-1,28,-1,-1,-1,-1,30,-1,-1,-1,-1],"split_conditions":[-4.6423233E1,-4.7043247E1,-1.6655766E1,-1.6229053E-3,-8.439195E-2,6.0142555E1,-1.076142E1,-5.847335E0,3.0392852E-1,1.7722577E3,-1.8828962E1,-9.183427E-2,1.5227325E-2,-1.3281245E1,-7.04832E0,-4.1185223E1,4.790383E1,1.9974522E-2,-6.9705114E-2,-8.2147546E-2,2.3877392E-2,-2.2936253E1,8.268955E-2,2.4594253E-2,-6.7801684E-2,-1.0665134E-2,-5.877323E1,2.9720573E-2,-6.419566E-2,-4.6469254E-4,8.4513836E-2],"split_indices":[38,37,10,0,0,1,2,5,21,13,7,0,0,6,4,37,1,0,0,0,0,2,0,0,0,0,32,0,0,0,0],"split_type":[0,0,0,0,0,0,0,0,0,0,0,0,0,0,0,0,0,0,0,0,0,0,0,0,0,0,0,0,0,0,0],"sum_hessian":[3.1859287E1,2.8318577E0,2.902743E1,1.0635562E0,1.7683014E0,1.3813644E1,1.5213784E1,4.043102E0,9.770543E0,1.2523437E1,2.6903474E0,3.0098078E0,1.0332937E0,4.0204463E0,5.750097E0,2.2610707E0,1.0262366E1,1.2350198E0,1.4553276E0,2.0160112E0,2.0044353E0,2.5430565E0,3.2070403E0,1.0077262E0,1.2533447E0,1.9024687E0,8.359898E0,1.0082005E0,1.534856E0,1.0373731E0,7.322524E0],"tree_param":{"num_deleted":"0","num_feature":"39","num_nodes":"31","size_leaf_vector":"1"}},{"base_weights":[-3.8270134E-2,1.7268671E-1,-3.431246E-1,-8.1080245E-3,6.428344E-1,-5.8899355E-1,1.9434348E-1,6.0749805E-1,-1.7708069E-1,-2.8547586E-3,8.645402E-2,-8.251556E-1,-1.9305046E-1,5.8717847E-2,-3.0436581E-2,1.7396359E-2,7.268849E-2,-6.360954E-1,2.270794E-1,-9.61926E-2,-1.5586014E-2,-5.30202E-1,3.913214E-2,-8.348464E-1,1.8975034E-2,-3.4807432E-2,4.9387604E-1,-7.4260145E-2,-1.2630954E-3,-2.5327897E-2,-9.152415E-2,-8.511414E-4,6.87805E-2],"categories":[],"categories_nodes":[],"categories_segments":[],"categories_sizes":[],"default_left":[0,0,0,0,0,0,0,0,0,0,0,0,0,0,0,0,0,0,0,0,0,0,0,0,0,0,0,0,0,0,0,0,0],"id":32,"left_children":[1,3,5,7,9,11,13,15,17,-1,-1,19,21,-1,-1,-1,-1,23,25,-1,-1,27,-1,29,-1,-1,31,-1,-1,-1,-1,-1,-1],"loss_changes":[2.1545317E0,1.6984868E0,1.9195274E0,1.7069448E0,8.5009813E-1,7.402613E-1,1.1659622E0,5.662203E-2,2.5261683E0,0E0,0E0,3.7373638E-1,1.1728171E0,0E0,0E0,0E0,0E0,1.1882687E0,1.3326056E0,0E0,0E0,3.7886578E-1,0E0,1.3299465E-2,0E0,0E0,5.4955673E-1,0E0,0E0,0E0,0E0,0E0,0E0],"parents":[2147483647,0,0,1,1,2,2,3,3,4,4,5,5,6,6,7,7,8,8,11,11,12,12,17,17,18,18,21,21,23,23,26,26],"right_children":[2,4,6,8,10,12,14,16,18,-1,-1,20,22,-1,-1,-1,-1,24,26,-1,-1,28,-1,30,-1,-1,32,-1,-1,-1,-1,-1,-1],"split_conditions":[-4.1661194E1,-7.002682E1,-3.8085735E1,-1.840937E1,-1.657748E1,-1.3064946E1,-6.827637E1,3.0540273E-1,-6.2348323E0,-2.8547586E-3,8.645402E-2,3.6282314E3,3.4833902E-1,5.8717847E-2,-3.0436581E-2,1.7396359E-2,7.268849E-2,5.765018E1,-3.559743E2,-9.61926E-2,-1.5586014E-2,-1.6917965E1,3.913214E-2,-6.886071E1,1.8975034E-2,-3.4807432E-2,2.7947584E-1,-7.4260145E-2,-1.2630954E-3,-2.5327897E-2,-9.152415E-2,-8.511414E-4,6.87805E-2],"split_indices":[37,29,38,6,10,6,29,26,5,0,0,14,28,0,0,0,0,1,0,0,0,10,0,30,0,0,24,0,0,0,0,0,0],"split_type":[0,0,0,0,0,0,0,0,0,0,0,0,0,0,0,0,0,0,0,0,0,0,0,0,0,0,0,0,0,0,0,0,0],"sum_hessian":[3.1580343E1,1.8920826E1,1.2659516E1,1.43755E1,4.5453267E0,8.620249E0,4.039267E0,2.537083E0,1.1838417E1,1.344642E0,3.200685E0,4.7205997E0,3.8996491E0,2.1602414E0,1.8790257E0,1.0783539E0,1.458729E0,5.2743435E0,6.564073E0,3.5565898E0,1.1640099E0,2.531694E0,1.3679552E0,4.242443E0,1.0319002E0,1.9834838E0,4.5805893E0,1.4867737E0,1.0449202E0,1.0193107E0,3.2231326E0,1.5420091E0,3.0385802E0],"tree_param":{"num_deleted":"0","num_feature":"39","num_nodes":"33","size_leaf_vector":"1"}},{"base_weights":[-1.4268173E-1,-4.5335072E-1,1.0857158E-1,-7.214509E-1,-9.1759734E-2,-2.500197E-1,2.9454812E-1,-1.7245946E-3,-8.26216E-2,5.290493E-2,-3.037764E-1,2.4543257E-2,-5.032789E-1,4.9252796E-1,-3.0359355E-1,-7.5146645E-2,5.5397816E-2,-7.217004E-2,5.296401E-3,7.8026295E-1,1.0882296E-1,-6.57968E-2,1.6897608E-2,5.1707216E-2,-4.013288E-2,8.698939E-2,2.555854E-2,6.038038E-2,-4.921412E-2],"categories":[],"categories_nodes":[],"categories_segments":[],"categories_sizes":[],"default_left":[0,0,0,0,0,0,0,0,0,0,0,0,0,0,0,0,0,0,0,0,0,0,0,0,0,0,0,0,0],"id":33,"left_children":[1,3,5,7,9,11,13,-1,-1,-1,15,-1,17,19,21,-1,23,-1,-1,25,27,-1,-1,-1,-1,-1,-1,-1,-1],"loss_changes":[2.39803E0,1.2568636E0,1.2369221E0,5.531907E-1,1.0763421E0,9.3886995E-1,1.5640845E0,0E0,0E0,0E0,9.776077E-1,0E0,6.0047543E-1,9.4804645E-1,7.1225333E-1,0E0,1.0849056E0,0E0,0E0,2.1484852E-2,1.835488E0,0E0,0E0,0E0,0E0,0E0,0E0,0E0,0E0],"parents":[2147483647,0,0,1,1,2,2,3,3,4,4,5,5,6,6,10,10,12,12,13,13,14,14,16,16,19,19,20,20],"right_children":[2,4,6,8,10,12,14,-1,-1,-1,16,-1,18,20,22,-1,24,-1,-1,26,28,-1,-1,-1,-1,-1,-1,-1,-1],"split_conditions":[3.2270545E-1,3.485141E-1,3.6235973E-1,2.7788374E-1,-8.87469E0,-1.9552359E1,-1.3903327E1,-1.7245946E-3,-8.26216E-2,5.290493E-2,1.6952219E1,2.4543257E-2,4.1982743E-1,3.3630365E-1,3.6456382E-1,-7.5146645E-2,-4.2834377E1,-7.217004E-2,5.296401E-3,3.6055103E-1,-2.2936253E1,-6.57968E-2,1.6897608E-2,5.1707216E-2,-4.013288E-2,8.698939E-2,2.555854E-2,6.038038E-2,-4.921412E-2],"split_indices":[25,28,20,26,11,12,2,0,0,0,3,0,17,17,26,0,36,0,0,25,2,0,0,0,0,0,0,0,0],"split_type":[0,0,0,0,0,0,0,0,0,0,0,0,0,0,0,0,0,0,0,0,0,0,0,0,0,0,0,0,0],"sum_hessian":[2.9091099E1,1.2647902E1,1.6443197E1,6.691386E0,5.9565153E0,5.497949E0,1.0945249E1,1.0173851E0,5.674001E0,1.1357093E0,4.820806E0,1.8701904E0,3.6277585E0,8.35604E0,2.5892088E0,1.6597798E0,3.161026E0,2.3913035E0,1.236455E0,4.184583E0,4.171457E0,1.2554454E0,1.3337635E0,1.5062912E0,1.6547348E0,3.012071E0,1.1725122E0,2.2848377E0,1.8866193E0],"tree_param":{"num_deleted":"0","num_feature":"39","num_nodes":"29","size_leaf_vector":"1"}},{"base_weights":[3.5910256E-2,-2.8902233E-1,1.8658346E-1,3.9867874E-2,-4.3882903E-1,3.5941702E-1,-2.6864773E-1,-6.2341535E-1,3.5665486E-2,-1.3886356E-1,5.3501433E-1,3.9238494E-2,-6.453369E-1,-7.746977E-1,9.436236E-3,-5.762726E-2,3.077765E-1,-2.4543127E-2,6.3877475E-1,-8.0938034E-2,-1.3105616E-2,-2.4821503E-2,-8.59771E-2,5.070137E-2,-4.5415065E-3,-2.4644278E-2,7.5718915E-1,1.1711559E-2,8.253103E-2],"categories":[],"categories_nodes":[],"categories_segments":[],"categories_sizes":[],"default_left":[0,0,0,0,0,0,0,0,0,0,0,0,0,0,0,0,0,0,0,0,0,0,0,0,0,0,0,0,0],"id":34,"left_children":[1,3,5,-1,7,9,11,13,-1,15,17,-1,19,21,-1,-1,23,-1,25,-1,-1,-1,-1,-1,-1,-1,27,-1,-1],"loss_changes":[1.5321863E0,1.2008331E0,1.7674031E0,0E0,1.4928688E0,1.4584973E0,1.8508605E0,8.7523174E-1,0E0,1.1378298E0,1.1207364E0,0E0,2.7063096E-1,6.471944E-2,0E0,0E0,2.4006698E-1,0E0,1.3170567E0,0E0,0E0,0E0,0E0,0E0,0E0,0E0,3.2879925E-1,0E0,0E0],"parents":[2147483647,0,0,1,1,2,2,4,4,5,5,6,6,7,7,9,9,10,10,12,12,13,13,16,16,18,18,26,26],"right_children":[2,4,6,-1,8,10,12,14,-1,16,18,-1,20,22,-1,-1,24,-1,26,-1,-1,-1,-1,-1,-1,-1,28,-1,-1],"split_conditions":[3.0373642E-1,-4.337319E1,-1.3667716E1,3.9867874E-2,-3.6205147E1,3.1103787E-1,3.7883562E-1,3.8294125E-1,3.5665486E-2,3.672675E-1,3.0051485E-1,3.9238494E-2,3.46341E-1,-6.269472E0,9.436236E-3,-5.762726E-2,-3.2869403E2,-2.4543127E-2,-4.569427E1,-8.0938034E-2,-1.3105616E-2,-2.4821503E-2,-8.59771E-2,5.070137E-2,-4.5415065E-3,-2.4644278E-2,-2.4854294E1,1.1711559E-2,8.253103E-2],"split_indices":[22,35,2,0,34,26,21,26,0,21,28,0,27,5,0,0,0,0,38,0,0,0,0,0,0,0,8,0,0],"split_type":[0,0,0,0,0,0,0,0,0,0,0,0,0,0,0,0,0,0,0,0,0,0,0,0,0,0,0,0,0],"sum_hessian":[2.919405E1,8.957864E0,2.0236185E1,1.3051535E0,7.6527104E0,1.482006E1,5.4161263E0,6.386967E0,1.265743E0,3.9162827E0,1.0903777E1,1.9509085E0,3.4652176E0,5.2096543E0,1.1773129E0,1.8319528E0,2.0843296E0,1.1193204E0,9.784456E0,2.1921601E0,1.2730576E0,1.2696964E0,3.939958E0,1.0541551E0,1.0301746E0,1.0268623E0,8.757594E0,1.1039535E0,7.6536407E0],"tree_param":{"num_deleted":"0","num_feature":"39","num_nodes":"29","size_leaf_vector":"1"}},{"base_weights":[-4.753842E-2,-3.8116795E-1,9.837655E-2,-5.4422086E-1,4.1150417E-2,-2.2696893E-1,4.077528E-1,-8.5874684E-2,-1.1670001E-1,-6.5799654E-1,1.7920282E-1,5.578024E-1,-3.2402456E-2,2.579084E-2,-4.325634E-2,-2.2484537E-3,-7.9590786E-1,8.285639E-2,-3.77283E-1,-2.9681872E-3,6.715075E-1,-9.312164E-2,-1.6807964E-2,2.1272896E-2,-6.795863E-2,8.18722E-1,3.367671E-3,9.6145615E-2,2.7685303E-3],"categories":[],"categories_nodes":[],"categories_segments":[],"categories_sizes":[],"default_left":[0,0,0,0,0,0,0,0,0,0,0,0,0,0,0,0,0,0,0,0,0,0,0,0,0,0,0,0,0],"id":35,"left_children":[1,3,5,7,-1,9,11,-1,13,15,17,19,-1,-1,-1,-1,21,-1,23,-1,25,-1,-1,-1,-1,27,-1,-1,-1],"loss_changes":[1.5126629E0,1.4421703E0,2.2945437E0,1.0088644E0,0E0,2.0972066E0,1.4512953E0,0E0,6.621627E-1,4.815929E-1,2.6999636E0,6.859093E-1,0E0,0E0,0E0,0E0,2.3882055E-1,0E0,9.0168864E-1,0E0,7.6073647E-1,0E0,0E0,0E0,0E0,7.38688E-1,0E0,0E0,0E0],"parents":[2147483647,0,0,1,1,2,2,3,3,5,5,6,6,8,8,9,9,10,10,11,11,16,16,18,18,20,20,25,25],"right_children":[2,4,6,8,-1,10,12,-1,14,16,18,20,-1,-1,-1,-1,22,-1,24,-1,26,-1,-1,-1,-1,28,-1,-1,-1],"split_conditions":[1.4319958E-1,-3.886706E1,-6.2348323E0,3.7352398E-1,4.1150417E-2,3.884045E-1,-4.203196E1,-8.5874684E-2,-1.7983099E1,3.4788145E3,-1.5841375E1,-5.1412235E1,-3.2402456E-2,2.579084E-2,-4.325634E-2,-2.2484537E-3,-1.3413815E1,8.285639E-2,-9.645253E0,-2.9681872E-3,-2.0414865E0,-9.312164E-2,-1.6807964E-2,2.1272896E-2,-6.795863E-2,2.4999123E0,3.367671E-3,9.6145615E-2,2.7685303E-3],"split_indices":[15,33,5,20,0,21,33,0,2,14,2,33,0,0,0,0,2,0,4,0,4,0,0,0,0,9,0,0,0],"split_type":[0,0,0,0,0,0,0,0,0,0,0,0,0,0,0,0,0,0,0,0,0,0,0,0,0,0,0,0,0],"sum_hessian":[2.9302345E1,8.425491E0,2.0876856E1,7.2480087E0,1.1774824E0,1.0305635E1,1.0571219E1,3.5947177E0,3.653291E0,4.69904E0,5.6065955E0,8.969735E0,1.6014844E0,1.7551707E0,1.8981204E0,1.0452833E0,3.6537564E0,2.3617535E0,3.244842E0,1.5743645E0,7.395371E0,2.6083703E0,1.0453862E0,1.199689E0,2.0451531E0,5.7781425E0,1.6172282E0,4.7124023E0,1.0657403E0],"tree_param":{"num_deleted":"0","num_feature":"39","num_nodes":"29","size_leaf_vector":"1"}},{"base_weights":[-4.084479E-2,1.3420053E-1,-2.6598197E-1,-4.1507866E-2,4.921006E-1,1.843028E-1,-6.2650895E-1,-2.280705E-1,6.3600086E-2,-1.8220332E-2,7.101372E-2,4.0839165E-1,-2.9123297E-2,1.7516501E-3,-8.336761E-1,3.111967E-1,-4.4755664E-1,-8.448968E-2,7.9456024E-2,-9.070904E-2,-2.5219595E-2,-2.9669419E-2,7.037239E-2,-6.20351E-1,8.557725E-3,4.950703E-2,-6.103919E-2,5.460162E-3,-7.8444295E-2],"categories":[],"categories_nodes":[],"categories_segments":[],"categories_sizes":[],"default_left":[0,0,0,0,0,0,0,0,0,0,0,0,0,0,0,0,0,0,0,0,0,0,0,0,0,0,0,0,0],"id":36,"left_children":[1,3,5,7,9,11,13,15,-1,-1,-1,17,-1,-1,19,21,23,25,-1,-1,-1,-1,-1,27,-1,-1,-1,-1,-1],"loss_changes":[1.2168678E0,1.1225977E0,2.2982097E0,1.7474638E0,9.8932195E-1,8.38364E-1,1.0411808E0,1.4029496E0,0E0,0E0,0E0,1.0197777E0,0E0,0E0,2.0632267E-2,1.0864666E0,7.898952E-1,1.2478445E0,0E0,0E0,0E0,0E0,0E0,7.252557E-1,0E0,0E0,0E0,0E0,0E0],"parents":[2147483647,0,0,1,1,2,2,3,3,4,4,5,5,6,6,7,7,11,11,14,14,15,15,16,16,17,17,23,23],"right_children":[2,4,6,8,10,12,14,16,-1,-1,-1,18,-1,-1,20,22,24,26,-1,-1,-1,-1,-1,28,-1,-1,-1,-1,-1],"split_conditions":[-1.3237048E1,-1.6784466E1,3.5080162E-1,-3.6977623E1,1.3714157E-1,-1.7121958E1,3.1428826E-1,1.9092304E1,6.3600086E-2,-1.8220332E-2,7.101372E-2,4.1893592E-1,-2.9123297E-2,1.7516501E-3,3.1510195E-1,-5.5583253E0,2.8104084E1,-4.019335E1,7.9456024E-2,-9.070904E-2,-2.5219595E-2,-2.9669419E-2,7.037239E-2,-1.9614843E1,8.557725E-3,4.950703E-2,-6.103919E-2,5.460162E-3,-7.8444295E-2],"split_indices":[12,10,19,34,15,6,17,3,0,0,0,22,0,0,24,5,3,35,0,0,0,0,0,12,0,0,0,0,0],"split_type":[0,0,0,0,0,0,0,0,0,0,0,0,0,0,0,0,0,0,0,0,0,0,0,0,0,0,0,0,0],"sum_hessian":[2.8972004E1,1.652649E1,1.2445515E1,1.1677521E1,4.848969E0,5.751234E0,6.6942806E0,9.676354E0,2.0011668E0,1.2249652E0,3.6240036E0,4.0050926E0,1.7461411E0,1.8520901E0,4.8421903E0,2.6782289E0,6.998125E0,2.1026335E0,1.9024594E0,3.8021812E0,1.0400091E0,1.1466311E0,1.5315976E0,5.161602E0,1.836523E0,1.0281777E0,1.0744556E0,1.1399486E0,4.0216537E0],"tree_param":{"num_deleted":"0","num_feature":"39","num_nodes":"29","size_leaf_vector":"1"}},{"base_weights":[-8.17934E-2,-6.872003E-2,3.3339462E-3,1.0237154E-1,-5.0722855E-1,5.598092E-3,7.327953E-2,5.646359E-3,-7.537802E-2,-9.612637E-2,5.478574E-1,2.4080034E-1,-4.1434214E-1,1.2371542E-2,6.812087E-2,-4.8022345E-2,4.2417686E-2,1.9378226E-2,-5.612364E-2],"categories":[],"categories_nodes":[],"categories_segments":[],"categories_sizes":[],"default_left":[0,0,0,0,0,0,0,0,0,0,0,0,0,0,0,0,0,0,0],"id":37,"left_children":[1,-1,3,5,7,9,-1,-1,-1,11,13,15,17,-1,-1,-1,-1,-1,-1],"loss_changes":[1.4315702E0,0E0,1.3316989E0,1.3398936E0,6.373645E-1,1.1617185E0,0E0,0E0,0E0,2.0061243E0,1.0379684E-1,1.4292126E0,9.5844126E-1,0E0,0E0,0E0,0E0,0E0,0E0],"parents":[2147483647,0,0,2,2,3,3,4,4,5,5,9,9,10,10,11,11,12,12],"right_children":[2,-1,4,6,8,10,-1,-1,-1,12,14,16,18,-1,-1,-1,-1,-1,-1],"split_conditions":[2.99896E-1,-6.872003E-2,-1.0404158E0,3.9335275E-1,-1.887636E1,4.3276274E-1,7.327953E-2,5.646359E-3,-7.537802E-2,-6.3322225E0,2.0357203E0,2.6246515E-1,2.796462E-1,1.2371542E-2,6.812087E-2,-4.8022345E-2,4.2417686E-2,1.9378226E-2,-5.612364E-2],"split_indices":[27,0,4,27,2,18,0,0,0,11,9,25,22,0,0,0,0,0,0],"split_type":[0,0,0,0,0,0,0,0,0,0,0,0,0,0,0,0,0,0,0],"sum_hessian":[2.673324E1,2.4237132E0,2.4309526E1,2.1029726E1,3.2797995E0,1.9105768E1,1.9239588E0,1.2326266E0,2.0471728E0,1.6780567E1,2.3252E0,8.268823E0,8.511745E0,1.017295E0,1.307905E0,1.3483644E0,6.9204583E0,1.5939184E0,6.917827E0],"tree_param":{"num_deleted":"0","num_feature":"39","num_nodes":"19","size_leaf_vector":"1"}},{"base_weights":[-8.456425E-2,-1.3742653E-1,5.3825665E-2,2.6619802E-3,-5.19401E-1,2.9657355E-1,-2.3765115E-1,-6.2293184E-1,3.631262E-3,8.0139525E-2,-7.0492245E-2,-4.2062142E-1,4.5193306E-1,-7.337716E-1,-5.0016954E-3,-4.883793E-1,3.1698355E-1,2.6814294E-1,-6.339529E-1,5.8305275E-2,9.44493E-3,-8.625304E-2,-1.3293107E-2,-7.0979804E-2,4.351389E-4,-1.7581554E-2,7.353309E-2,-1.8310664E-2,5.9708536E-2,-3.315245E-3,-7.570626E-2],"categories":[],"categories_nodes":[],"categories_segments":[],"categories_sizes":[],"default_left":[0,0,0,0,0,0,0,0,0,0,0,0,0,0,0,0,0,0,0,0,0,0,0,0,0,0,0,0,0,0,0],"id":38,"left_children":[1,3,-1,5,7,9,11,13,-1,-1,15,17,19,21,-1,23,25,27,29,-1,-1,-1,-1,-1,-1,-1,-1,-1,-1,-1,-1],"loss_changes":[1.0180664E0,1.4583821E0,0E0,1.5478624E0,4.4327474E-1,1.8824718E0,1.712112E0,3.581741E-1,0E0,0E0,1.2274745E0,1.6468825E0,8.609384E-2,2.827716E-1,0E0,3.9375615E-1,9.629564E-1,5.6647134E-1,5.6451464E-1,0E0,0E0,0E0,0E0,0E0,0E0,0E0,0E0,0E0,0E0,0E0,0E0],"parents":[2147483647,0,0,1,1,3,3,4,4,5,5,6,6,7,7,10,10,11,11,12,12,13,13,15,15,16,16,17,17,18,18],"right_children":[2,4,-1,6,8,10,12,14,-1,-1,16,18,20,22,-1,24,26,28,30,-1,-1,-1,-1,-1,-1,-1,-1,-1,-1,-1,-1],"split_conditions":[-3.7245476E1,-4.022292E1,5.3825665E-2,-1.6662384E1,3.9229208E-1,1.899481E1,-6.9809715E1,4.1042462E-1,3.631262E-3,8.0139525E-2,3.0277783E-1,-7.210371E1,-1.0722553E1,-1.156207E1,-5.0016954E-3,-9.2278576E-1,2.5726522E1,1.6534148E-1,-8.566195E0,5.8305275E-2,9.44493E-3,-8.625304E-2,-1.3293107E-2,-7.0979804E-2,4.351389E-4,-1.7581554E-2,7.353309E-2,-1.8310664E-2,5.9708536E-2,-3.315245E-3,-7.570626E-2],"split_indices":[36,36,0,2,28,3,29,22,0,0,22,29,9,6,0,11,3,15,11,0,0,0,0,0,0,0,0,0,0,0,0],"split_type":[0,0,0,0,0,0,0,0,0,0,0,0,0,0,0,0,0,0,0,0,0,0,0,0,0,0,0,0,0,0,0],"sum_hessian":[2.7675232E1,2.6228426E1,1.4468042E0,1.991695E1,6.3114767E0,8.854034E0,1.1062915E1,5.2183313E0,1.0931457E0,3.2294123E0,5.624623E0,9.051325E0,2.01159E0,4.1371603E0,1.0811709E0,2.5808263E0,3.0437963E0,2.0797358E0,6.9715896E0,1.0101069E0,1.001483E0,3.0483634E0,1.0887969E0,1.4767007E0,1.1041257E0,1.6637237E0,1.3800726E0,1.0637755E0,1.0159602E0,1.4014614E0,5.570128E0],"tree_param":{"num_deleted":"0","num_feature":"39","num_nodes":"31","size_leaf_vector":"1"}},{"base_weights":[-1.05060786E-1,1.4935523E-1,-3.3398306E-1,3.2326818E-1,-5.404312E-2,-4.728163E-1,3.8669262E-2,6.403035E-1,-9.899133E-2,-5.7124895E-1,8.452894E-3,8.174321E-2,4.6606148E-3,-5.8653903E-1,4.9062707E-2,-6.588792E-1,-2.2138832E-3,-7.4056484E-2,-1.0714489E-2,-7.4148136E-1,-1.0477321E-2,-8.3833516E-2,-1.6705427E-2],"categories":[],"categories_nodes":[],"categories_segments":[],"categories_sizes":[],"default_left":[0,0,0,0,0,0,0,0,0,0,0,0,0,0,0,0,0,0,0,0,0,0,0],"id":39,"left_children":[1,3,5,7,-1,9,-1,11,13,15,-1,-1,-1,17,-1,19,-1,-1,-1,21,-1,-1,-1],"loss_changes":[1.5183771E0,1.6901922E0,1.5416554E0,1.4978068E0,0E0,6.976838E-1,0E0,6.195681E-1,1.8576417E0,4.757073E-1,0E0,0E0,0E0,1.7500877E-1,0E0,3.2290483E-1,0E0,0E0,0E0,2.745595E-1,0E0,0E0,0E0],"parents":[2147483647,0,0,1,1,2,2,3,3,5,5,7,7,8,8,9,9,13,13,15,15,19,19],"right_children":[2,4,6,8,-1,10,-1,12,14,16,-1,-1,-1,18,-1,20,-1,-1,-1,22,-1,-1,-1],"split_conditions":[1.9110044E1,-3.1468033E2,-3.740853E1,-1.9239101E1,-5.404312E-2,4.3276274E-1,3.8669262E-2,-4.019335E1,1.6235313E1,1.9326843E3,8.452894E-3,8.174321E-2,4.6606148E-3,-6.7492546E1,4.9062707E-2,-3.138433E2,-2.2138832E-3,-7.4056484E-2,-1.0714489E-2,4.064327E-1,-1.0477321E-2,-8.3833516E-2,-1.6705427E-2],"split_indices":[3,0,35,7,0,18,0,35,3,13,0,0,0,30,0,0,0,0,0,17,0,0,0],"split_type":[0,0,0,0,0,0,0,0,0,0,0,0,0,0,0,0,0,0,0,0,0,0,0],"sum_hessian":[2.4213892E1,1.1632984E1,1.2580909E1,9.714946E0,1.918038E0,1.0837135E1,1.7437735E0,5.253905E0,4.4610415E0,9.189273E0,1.6478627E0,3.756353E0,1.4975516E0,2.4447403E0,2.0163012E0,7.7522235E0,1.4370492E0,1.4379456E0,1.0067946E0,6.4522157E0,1.3000079E0,5.1281357E0,1.3240803E0],"tree_param":{"num_deleted":"0","num_feature":"39","num_nodes":"23","size_leaf_vector":"1"}},{"base_weights":[-1.9180985E-2,2.0790625E-1,-2.1544446E-1,-3.101605E-1,5.0986356E-1,-3.7854376E-1,3.7545973E-1,7.799348E-2,-6.576923E-2,3.1660076E-2,6.820739E-1,-4.9928463E-1,2.2115914E-2,6.295355E-2,2.8642954E-3,4.6866965E-2,-3.364506E-2,-5.0267823E-2,5.399635E-2,8.266973E-2,8.745865E-3,-7.067257E-1,2.6512327E-2,-8.605392E-2,-4.6140184E-3,3.9581817E-2,-3.274994E-2],"categories":[],"categories_nodes":[],"categories_segments":[],"categories_sizes":[],"default_left":[0,0,0,0,0,0,0,0,0,0,0,0,0,0,0,0,0,0,0,0,0,0,0,0,0,0,0],"id":40,"left_children":[1,3,5,7,9,11,13,15,-1,17,19,21,-1,-1,-1,-1,-1,-1,-1,-1,-1,23,25,-1,-1,-1,-1],"loss_changes":[1.2068737E0,2.1286764E0,1.5373837E0,7.608761E-1,6.649201E-1,9.679985E-1,3.021549E-1,7.047677E-1,0E0,1.1557513E0,4.505906E-1,1.1275251E0,0E0,0E0,0E0,0E0,0E0,0E0,0E0,0E0,0E0,7.0465064E-1,6.316427E-1,0E0,0E0,0E0,0E0],"parents":[2147483647,0,0,1,1,2,2,3,3,4,4,5,5,6,6,7,7,9,9,10,10,11,11,21,21,22,22],"right_children":[2,4,6,8,10,12,14,16,-1,18,20,22,-1,-1,-1,-1,-1,-1,-1,-1,-1,24,26,-1,-1,-1,-1],"split_conditions":[-4.1358288E1,-3.5344403E2,-3.6790257E1,-1.6559727E1,3.5661536E-1,3.6386725E-1,-9.432235E0,-7.5851364E0,-6.576923E-2,3.5874057E-1,4.2151427E-1,3.6860606E-1,2.2115914E-2,6.295355E-2,2.8642954E-3,4.6866965E-2,-3.364506E-2,-5.0267823E-2,5.399635E-2,8.266973E-2,8.745865E-3,-1.9724382E0,-1.9925577E1,-8.605392E-2,-4.6140184E-3,3.9581817E-2,-3.274994E-2],"split_indices":[35,0,35,2,20,23,4,7,0,17,20,26,0,0,0,0,0,0,0,0,0,4,2,0,0,0,0],"split_type":[0,0,0,0,0,0,0,0,0,0,0,0,0,0,0,0,0,0,0,0,0,0,0,0,0,0,0],"sum_hessian":[2.50738E1,1.1596599E1,1.34772005E1,4.26021E0,7.3363886E0,1.0843576E1,2.633624E0,2.3788645E0,1.8813455E0,2.2559059E0,5.080483E0,9.16566E0,1.6779166E0,1.0495493E0,1.5840746E0,1.1571944E0,1.22167E0,1.1051829E0,1.150723E0,3.7725985E0,1.3078843E0,6.325841E0,2.839819E0,4.885573E0,1.4402684E0,1.3320881E0,1.5077307E0],"tree_param":{"num_deleted":"0","num_feature":"39","num_nodes":"27","size_leaf_vector":"1"}},{"base_weights":[2.291827E-2,-5.5054292E-2,5.458315E-1,1.4949897E-1,-4.1541958E-1,6.938492E-2,1.0365549E-2,5.4376596E-1,-1.1313062E-1,-6.6700274E-1,1.11774266E-1,-2.1838916E-2,7.444408E-1,-5.097842E-1,2.977835E-1,5.0844885E-3,-8.194774E-2,-3.833675E-2,4.645816E-2,2.0840678E-2,8.303165E-2,-7.540799E-2,6.1455923E-3,-2.5157523E-1,7.845961E-2,3.188407E-2,-6.236322E-2],"categories":[],"categories_nodes":[],"categories_segments":[],"categories_sizes":[],"default_left":[0,0,0,0,0,0,0,0,0,0,0,0,0,0,0,0,0,0,0,0,0,0,0,0,0,0,0],"id":41,"left_children":[1,3,5,7,9,-1,-1,11,13,15,17,-1,19,21,23,-1,-1,-1,-1,-1,-1,-1,-1,25,-1,-1,-1],"loss_changes":[1.1043656E0,1.8193009E0,1.5785396E-1,1.7122307E0,1.2544894E0,0E0,0E0,1.1637295E0,1.8462554E0,7.165401E-1,8.2976705E-1,0E0,7.59151E-2,8.35999E-1,1.7317839E0,0E0,0E0,0E0,0E0,0E0,0E0,0E0,0E0,9.316126E-1,0E0,0E0,0E0],"parents":[2147483647,0,0,1,1,2,2,3,3,4,4,7,7,8,8,9,9,10,10,12,12,13,13,14,14,23,23],"right_children":[2,4,6,8,10,-1,-1,12,14,16,18,-1,20,22,24,-1,-1,-1,-1,-1,-1,-1,-1,26,-1,-1,-1],"split_conditions":[-3.6790257E1,-4.1661194E1,-2.0671158E1,-1.6751131E1,-1.2661976E1,6.938492E-2,1.0365549E-2,3.0392852E-1,-6.2348323E0,-4.0651173E1,-3.9912525E1,-2.1838916E-2,1.04166664E2,1.6992632E-1,1.6132402E1,5.0844885E-3,-8.194774E-2,-3.833675E-2,4.645816E-2,2.0840678E-2,8.303165E-2,-7.540799E-2,6.1455923E-3,5.0299328E1,7.845961E-2,3.188407E-2,-6.236322E-2],"split_indices":[35,37,7,2,6,0,0,21,5,35,38,0,16,15,3,0,0,0,0,0,0,0,0,1,0,0,0],"split_type":[0,0,0,0,0,0,0,0,0,0,0,0,0,0,0,0,0,0,0,0,0,0,0,0,0,0,0],"sum_hessian":[2.5348764E1,2.2838057E1,2.5107086E0,1.4941815E1,7.8962407E0,1.4546108E0,1.0560977E0,5.5458145E0,9.396001E0,5.165844E0,2.7303967E0,1.137471E0,4.408344E0,4.658531E0,4.7374697E0,1.0217935E0,4.14405E0,1.0999997E0,1.6303971E0,1.0819129E0,3.3264308E0,3.0388613E0,1.6196697E0,2.4527774E0,2.2846925E0,1.0247395E0,1.4280378E0],"tree_param":{"num_deleted":"0","num_feature":"39","num_nodes":"27","size_leaf_vector":"1"}},{"base_weights":[9.655832E-2,-1.7623581E-1,3.272502E-1,1.1314212E-1,-4.8997808E-1,4.0833032E-1,-3.4361746E-2,-4.0307622E-2,3.429363E-1,-6.1305356E-1,6.4060497E-3,-6.2060975E-2,5.70769E-1,5.2391183E-1,-2.2578549E-2,-8.017665E-2,-1.6201012E-2,4.9155977E-2,-5.3817194E-2,-3.962547E-4,6.899624E-1,1.1124532E-3,6.710657E-2,4.2073843E-3,8.588948E-2],"categories":[],"categories_nodes":[],"categories_segments":[],"categories_sizes":[],"default_left":[0,0,0,0,0,0,0,0,0,0,0,0,0,0,0,0,0,0,0,0,0,0,0,0,0],"id":42,"left_children":[1,3,5,7,9,11,-1,-1,13,15,-1,17,19,21,-1,-1,-1,-1,-1,-1,23,-1,-1,-1,-1],"loss_changes":[1.6880428E0,1.1921583E0,9.228637E-1,1.0072045E0,4.6169114E-1,1.051096E0,0E0,0E0,6.956279E-1,3.0960786E-1,0E0,1.4016285E0,6.863065E-1,3.363539E-1,0E0,0E0,0E0,0E0,0E0,0E0,8.6903787E-1,0E0,0E0,0E0,0E0],"parents":[2147483647,0,0,1,1,2,2,3,3,4,4,5,5,8,8,9,9,11,11,12,12,13,13,20,20],"right_children":[2,4,6,8,10,12,-1,-1,14,16,-1,18,20,22,-1,-1,-1,-1,-1,-1,24,-1,-1,-1,-1],"split_conditions":[3.3816656E-1,1.9747456E1,4.3236957E0,3.314453E-1,-3.8832317E1,1.642664E1,-3.4361746E-2,-4.0307622E-2,-6.6278906E0,-1.6731909E1,6.4060497E-3,-8.077505E0,3.3663782E-1,3.019526E-1,-2.2578549E-2,-8.017665E-2,-1.6201012E-2,4.9155977E-2,-5.3817194E-2,-3.962547E-4,-6.686502E1,1.1124532E-3,6.710657E-2,4.2073843E-3,8.588948E-2],"split_indices":[28,3,9,18,38,3,0,0,9,10,0,11,18,28,0,0,0,0,0,0,30,0,0,0,0],"split_type":[0,0,0,0,0,0,0,0,0,0,0,0,0,0,0,0,0,0,0,0,0,0,0,0,0],"sum_hessian":[2.4907093E1,1.1520321E1,1.3386771E1,6.3254585E0,5.1948624E0,1.2292462E1,1.094309E0,1.7161531E0,4.6093054E0,4.163463E0,1.0313996E0,3.3139224E0,8.97854E0,3.5563986E0,1.052907E0,2.387127E0,1.7763362E0,1.517236E0,1.7966864E0,1.7082732E0,7.270267E0,1.0328434E0,2.5235553E0,1.7619402E0,5.5083265E0],"tree_param":{"num_deleted":"0","num_feature":"39","num_nodes":"25","size_leaf_vector":"1"}},{"base_weights":[-1.6265064E-2,7.6132685E-2,-4.874409E-1,2.2806358E-1,-2.0451725E-1,-7.002852E-2,6.007116E-3,-3.967419E-1,3.7066323E-1,-4.262028E-1,2.896051E-1,6.077619E-3,-6.52869E-2,2.8304458E-2,8.0323887E-1,-5.964815E-1,6.278892E-3,-1.5164755E-2,5.9238728E-2,5.516104E-2,-1.9380824E-1,9.2413664E-2,1.6904606E-2,-6.951013E-3,-7.3274545E-2,-7.23417E-2,1.8928811E-2],"categories":[],"categories_nodes":[],"categories_segments":[],"categories_sizes":[],"default_left":[0,0,0,0,0,0,0,0,0,0,0,0,0,0,0,0,0,0,0,0,0,0,0,0,0,0,0],"id":43,"left_children":[1,3,5,7,9,-1,-1,11,13,15,17,-1,-1,19,21,23,-1,-1,-1,-1,25,-1,-1,-1,-1,-1,-1],"loss_changes":[1.0933745E0,9.484336E-1,5.2135766E-1,1.4117005E0,9.948462E-1,0E0,0E0,4.053529E-1,1.7652949E0,5.283897E-1,4.9854743E-1,0E0,0E0,1.0107379E0,2.4994373E-1,2.699349E-1,0E0,0E0,0E0,0E0,1.3946584E0,0E0,0E0,0E0,0E0,0E0,0E0],"parents":[2147483647,0,0,1,1,2,2,3,3,4,4,7,7,8,8,9,9,10,10,13,13,14,14,15,15,20,20],"right_children":[2,4,6,8,10,-1,-1,12,14,16,18,-1,-1,20,22,24,-1,-1,-1,-1,26,-1,-1,-1,-1,-1,-1],"split_conditions":[-1.0404158E0,-6.428508E0,-5.156641E0,-6.3823273E1,4.318669E-1,-7.002852E-2,6.007116E-3,-7.153426E1,-6.0177646E0,5.903439E-1,4.571255E0,6.077619E-3,-6.52869E-2,-9.432235E0,-8.161821E0,3.29212E-1,6.278892E-3,-1.5164755E-2,5.9238728E-2,5.516104E-2,-6.0278316E0,9.2413664E-2,1.6904606E-2,-6.951013E-3,-7.3274545E-2,-7.23417E-2,1.8928811E-2],"split_indices":[4,9,11,31,18,0,0,29,5,11,5,0,0,4,9,27,0,0,0,0,4,0,0,0,0,0,0],"split_type":[0,0,0,0,0,0,0,0,0,0,0,0,0,0,0,0,0,0,0,0,0,0,0,0,0,0,0],"sum_hessian":[2.3262089E1,2.0149237E1,3.1128526E0,1.3193993E1,6.9552436E0,2.0405579E0,1.0722946E0,2.1205442E0,1.1073448E1,4.8960915E0,2.0591524E0,1.0347996E0,1.0857445E0,6.7760367E0,4.2974114E0,3.4684682E0,1.4276233E0,1.0410928E0,1.0180596E0,1.5770282E0,5.1990085E0,3.2253664E0,1.072045E0,1.0228666E0,2.4456017E0,1.8093474E0,3.3896613E0],